26 300
e 0.042415645 0.054087006 0.11950015 0.036303464 0.047411956 -0.06305486 -0.061698537 -0.05112804 -0.1010129 -0.03311906 -0.06907239 -0.048136435 0.08133289 0.13462155 0.014966474 0.010851966 0.042858448 0.027889898 -0.09235516 -0.004320637 0.112220116 0.069167145 0.026766445 0.061645113 -0.015985614 -0.02429468 -0.027706146 -0.031988468 0.08532522 0.093898535 0.1027092 -0.03854624 -0.012799286 -0.033192005 -0.023015374 0.14089236 -0.06295792 0.08045898 0.0015182068 -0.1258946 -0.04308371 0.01782875 0.09574512 0.05089179 0.011029986 0.06728882 0.029374268 0.03799655 -0.013553275 0.046618752 0.080014035 0.014291626 -0.0035889435 0.0005433605 0.00042599515 -0.06575802 0.08450164 0.026336446 0.074523464 -0.023482913 0.008849462 -0.115190625 0.16150515 0.0074573653 -0.0142389145 0.0008833279 0.007944531 -0.06231134 -0.09527948 -0.09899844 0.033792414 0.08017323 -0.027644325 0.047891434 -0.11352759 0.1086171 -0.1611766 0.0546552 0.0095824525 0.03121246 0.09384574 0.082946666 -0.007466075 -0.021379318 0.08866556 -0.111515425 -0.040574126 0.067750126 0.019334164 -0.08703742 0.02535394 -0.030330306 0.010958391 0.15148516 -0.04372788 0.13565914 0.06423387 -0.07798224 -0.01801984 0.04083448 0.09686261 -0.06960323 0.044544555 -0.15604028 0.024538584 -0.05190648 0.05285553 0.032930564 0.08062621 -0.12904947 -0.07851106 -0.07583687 -0.12320186 -0.06353219 -0.07197171 -0.110139534 0.020624626 0.04451722 -0.0616869 -0.1155043 0.051471345 -0.03306439 0.025517276 -0.04370481 0.014167607 -0.17411736 0.014072242 0.012699472 -0.04210356 -0.10349397 -0.042829607 0.077527635 0.13229522 -0.079862945 -0.013542093 -0.09101826 0.10449641 -0.007447777 0.09049545 0.013594379 0.065859035 -0.094660826 0.017906928 0.001246105 0.038161393 -0.018646548 -0.02014972 0.091365024 0.039688494 0.014158612 -0.018304722 -0.026095958 -0.022177206 0.013229486 -2.4761743e-05 0.10142486 0.11216964 0.11958902 0.03653891 -0.08761624 -0.032429986 0.026350936 0.115238436 0.12891835 0.012959141 -0.05641052 -0.041764192 -0.09780692 0.047529332 -0.003288172 0.06880088 -0.03663047 -0.07806235 -0.024833966 0.050859287 -0.019422442 0.1282724 -0.04716432 -0.052022144 0.078405194 0.16195828 0.052024104 0.047203146 0.046189453 0.00425182 -0.021481134 0.025273487 -0.013789839 0.04891482 -0.032519672 0.018702839 0.045849837 -0.065866634 0.08312146 0.089343466 -0.014525129 -0.026315415 -0.040462784 -0.05369483 0.011127943 -0.063153945 0.002378988 -0.019188521 -0.043197636 -0.08280589 0.04189678 -0.06009903 -0.11707379 -0.032389425 -0.009146397 0.040029984 -0.0030185678 -0.12492547 -0.09034248 0.05158913 -0.016819462 0.044900376 -0.0030226607 -0.11149014 0.027446104 -0.08284902 0.054050878 0.037052337 0.07735792 0.100214384 -0.0684883 0.01175559 0.010163985 0.022454944 0.047190018 -0.063315 -0.053951398 0.04453279 0.041521285 0.04596856 -0.0896198 0.055175688 0.040509075 0.073882714 -0.0011303871 -0.088843316 0.027961615 0.017361917 0.031812623 0.049680766 -0.10695086 -0.07691551 0.08426122 0.0010319222 -0.16264944 -0.046662837 0.11410681 0.026293756 -0.05013193 -0.018604727 0.06929459 0.06738668 0.046134286 0.08099455 -0.083303615 -0.0011907434 0.006758959 0.0061296443 -0.08100275 0.052173987 0.0056212232 0.09581164 -0.030738924 0.064200535 0.009522828 0.039314564 0.026480298 -0.04773889 -0.021622017 0.01084068 -0.07215883 0.07957175 0.01990032 -0.03236069 -0.04889568 -0.041527405 -0.027205877 0.06794974 -0.006074084 -0.09871025 -0.102018856 -0.08043123 0.006186132 -0.060080916 -0.018588109 0.0026195557 -0.035310395 -0.007192735 0.12341953 -0.0329011 0.053151004 -0.12895425 -0.16553667 -0.12116905 0.0012158473
i 0.03342006 0.04957399 0.11018349 0.028476907 0.039037433 -0.06062308 -0.051061008 -0.046807602 -0.093351506 -0.027527574 -0.061637055 -0.043733127 0.076036595 0.12714656 0.017887024 0.0068151467 0.047167674 0.02188955 -0.08824815 -0.0042332555 0.1173334 0.07151706 0.03364401 0.06687949 -0.021539856 -0.022934945 -0.023887705 -0.030469514 0.08561882 0.10063038 0.10892993 -0.039522167 -0.006144415 -0.031384442 -0.023770673 0.12861614 -0.05987432 0.07357652 0.0039345254 -0.11873765 -0.042759907 0.019271545 0.09622687 0.048012502 0.015779667 0.06239189 0.027981156 0.0354071 -0.013957692 0.039980564 0.07080327 0.016851174 -0.01110459 0.003252609 -0.0073544956 -0.07200555 0.079505585 0.019942293 0.07864492 -0.019733278 0.012917131 -0.113141015 0.15133017 0.0041763154 -0.009378584 -0.0072930506 0.009943038 -0.0649414 -0.0866104 -0.09591019 0.031360153 0.0725737 -0.021780187 0.044504683 -0.10844553 0.10028425 -0.15462747 0.051976897 0.01678188 0.023630489 0.092604354 0.07256245 -0.0041170223 -0.01684095 0.08248585 -0.10604296 -0.048531678 0.07322987 0.012976256 -0.079961844 0.02246675 -0.016380824 0.0071277004 0.14275806 -0.039591588 0.13230942 0.07022243 -0.06981385 -0.011170005 0.029969765 0.087291434 -0.05557789 0.038338214 -0.14230011 0.017202044 -0.05202881 0.053627357 0.03636569 0.07921298 -0.12472129 -0.07629527 -0.07014733 -0.12370736 -0.059337754 -0.06704939 -0.09745194 0.018692484 0.046311658 -0.057415668 -0.10383504 0.053174116 -0.03199062 0.024263145 -0.04261138 0.012825338 -0.16949217 0.013841518 0.017276565 -0.0505707 -0.1014482 -0.044191983 0.07657446 0.124968685 -0.08458225 -0.017564004 -0.075758904 0.11037868 -0.0011199657 0.091961205 0.02420766 0.06095121 -0.08994187 0.026382653 0.0012578833 0.035375148 -0.018578669 -0.02283402 0.08445082 0.04215409 0.020625172 -0.010518494 -0.02640243 -0.03219172 0.012092754 -0.0042071287 0.10265968 0.11398903 0.117392465 0.036092926 -0.093817905 -0.028407805 0.023375621 0.112925835 0.11801139 0.014263538 -0.052844536 -0.03528375 -0.09882191 0.053255595 -0.004661257 0.06508686 -0.03477823 -0.07899133 -0.01696257 0.04670215 -0.016335107 0.13327825 -0.042838786 -0.05066617 0.08163972 0.1576743 0.054184638 0.03973833 0.046974268 0.0023172554 -0.029515905 0.0248654 -0.013534624 0.048292577 -0.021792283 0.005786632 0.048657537 -0.071892686 0.0841212 0.099748164 -0.011851603 -0.027545732 -0.04647405 -0.058632486 0.0088082235 -0.05633095 0.0018277556 -0.012368256 -0.054215707 -0.08661103 0.036762875 -0.06611834 -0.11360825 -0.038855843 -0.005237145 0.0333771 -0.0048134075 -0.12622097 -0.088870004 0.051374007 -0.0146958865 0.0484214 0.000175101 -0.11095994 0.027969668 -0.083149426 0.054664455 0.035719372 0.08533337 0.10693849 -0.06898982 0.008405966 0.008899581 0.008105099 0.04055276 -0.06709374 -0.049035564 0.03986562 0.038942877 0.04518821 -0.0800839 0.053959895 0.030614965 0.07853374 -0.007199187 -0.08330611 0.023479838 0.012093156 0.030672543 0.03883833 -0.11080313 -0.07141408 0.079848945 0.000112308015 -0.16483374 -0.039643858 0.11287798 0.033692755 -0.043573156 -0.013468017 0.06989403 0.07019679 0.04192449 0.075136565 -0.08438632 -0.00085514545 0.011295787 0.01200952 -0.08119367 0.057817128 -0.00028457222 0.10022728 -0.028769227 0.06196408 0.011548026 0.033979315 0.027665257 -0.04437464 -0.015378899 0.015772358 -0.06893818 0.08243841 0.014924269 -0.039114077 -0.046281148 -0.032966375 -0.023077447 0.07501209 0.0059391595 -0.10456004 -0.099845536 -0.08927385 0.0012778793 -0.052680798 -0.015193056 0.0116736265 -0.039337803 -0.0054062773 0.12560919 -0.026090868 0.05140955 -0.13019325 -0.15998924 -0.112277806 0.004261205
s 0.030393912 0.04602916 0.08860638 0.025959369 0.04092361 -0.050312765 -0.04413313 -0.053678114 -0.08258347 -0.027971186 -0.06321297 -0.03734218 0.08496046 0.107095264 0.02258082 0.013614599 0.05522755 0.019258874 -0.078100055 0.004353077 0.11661308 0.07410389 0.024443466 0.056027815 -0.022154737 -0.025188236 -0.030030768 -0.042479627 0.080404244 0.10836859 0.1079484 -0.043684628 0.0056187036 -0.032159846 -0.030148389 0.13094231 -0.055525903 0.06546116 -0.0040404964 -0.115351714 -0.059375122 0.024237184 0.09013006 0.036706753 0.020558868 0.0734014 0.029521799 0.022239467 -0.016015071 0.043957062 0.06547552 0.015112175 -0.007898686 0.0025349096 0.0010302884 -0.07379219 0.0748423 0.02693928 0.0725245 -0.023143735 0.006179447 -0.10660982 0.14055246 0.010228071 -0.013214517 -0.00454406 -0.00056550675 -0.060647324 -0.07750209 -0.102716945 0.0185458 0.061931435 -0.019083692 0.035143603 -0.111727595 0.100106955 -0.13409407 0.046844445 0.015815634 0.0038364746 0.099117786 0.06722013 -0.0010029896 -0.0060416986 0.0822673 -0.090354465 -0.046996944 0.09177134 0.005503098 -0.06459527 0.028741827 -0.004745604 0.006228774 0.12564796 -0.035806537 0.12482038 0.070054956 -0.06841234 -0.0057345517 0.022877397 0.07827925 -0.047067218 0.03080638 -0.12416511 -0.0029856202 -0.0498607 0.054702096 0.036151096 0.076900885 -0.11453263 -0.05863642 -0.06728328 -0.11413428 -0.063525535 -0.056386266 -0.08039356 0.015227611 0.03381089 -0.05701378 -0.0939238 0.047384996 -0.030076733 0.02971375 -0.023323765 0.0071998904 -0.1624682 0.018532695 0.011705731 -0.05651855 -0.08508897 -0.045932185 0.07280356 0.10383267 -0.081682906 -0.042602334 -0.06435312 0.11072615 0.008237793 0.09695194 0.022758305 0.04791453 -0.07869261 0.03362451 0.0023262454 0.031401295 -0.025418792 -0.020263467 0.06857484 0.04354365 0.025636096 0.011831247 -0.024904296 -0.040352624 0.012115687 -0.0038421387 0.11140668 0.11287702 0.10014947 0.035636462 -0.1106164 -0.021927953 0.013278905 0.11016212 0.11362325 0.014398891 -0.037571747 -0.03804264 -0.096293084 0.056116886 -0.010359876 0.07126162 -0.041750494 -0.067734346 -0.011717513 0.031511605 -0.009620409 0.12868918 -0.05229682 -0.050513223 0.079102814 0.15986654 0.062382065 0.038872473 0.037943073 0.0013074387 -0.046614677 0.025790948 -0.021155186 0.036885288 -0.009404296 -0.02298225 0.045407884 -0.0727115 0.08074631 0.11416561 -0.0019080999 -0.039588135 -0.044543225 -0.060957585 0.011515307 -0.043252435 0.0050559733 -0.0014771267 -0.057002794 -0.09370934 0.026363853 -0.06945998 -0.12144151 -0.04388265 -0.0004885582 0.033804785 -0.0071701747 -0.1429976 -0.092561096 0.054203853 -0.02170314 0.060713306 0.0068185036 -0.12203473 0.03971885 -0.08763225 0.06295415 0.043291807 0.09990825 0.12431562 -0.07482789 0.011190472 0.0046567544 -0.00022598791 0.04035235 -0.065454714 -0.041633297 0.024696173 0.04648759 0.0533591 -0.082501344 0.061816312 0.025690472 0.08166901 -0.008803316 -0.091019906 0.021055061 0.005357351 0.025611747 0.04331134 -0.11171873 -0.060911994 0.07216615 0.0012645661 -0.1627684 -0.044251624 0.11014175 0.03734755 -0.04196864 -0.021153392 0.064015366 0.08654185 0.040131383 0.05871434 -0.09057995 -0.008817948 0.012658645 0.017175907 -0.092036076 0.06298222 -0.012140168 0.11616272 -0.022552738 0.059244145 0.013440923 0.025078041 0.020185439 -0.06443304 -0.009494892 0.02064703 -0.07244853 0.09367811 0.0052445857 -0.041812107 -0.03370498 -0.02772969 -0.026658218 0.075353466 0.009302333 -0.106870785 -0.085838966 -0.10299412 -0.0051971655 -0.05165213 -0.009902409 0.015641965 -0.030654661 0.0040814965 0.099694364 -0.026543718 0.04348728 -0.10489925 -0.12703314 -0.08666386 0.0059397947
n 0.03306345 0.05069886 0.0816745 0.023079956 0.050983444 -0.061001305 -0.028113987 -0.065365076 -0.090331376 -0.019913202 -0.07669648 -0.043366354 0.09694322 0.115071744 0.03086571 0.006464436 0.06668926 0.019150326 -0.089352824 0.003821026 0.12693474 0.08593094 0.031034112 0.0545184 -0.024430683 -0.028888091 -0.041635226 -0.04784882 0.092801355 0.12311346 0.13263574 -0.056298923 0.0068836445 -0.024698054 -0.040673908 0.119130686 -0.06099043 0.057077765 0.0030822083 -0.11866514 -0.049560536 0.02471838 0.087222114 0.037741728 0.023490902 0.07969884 0.024654478 0.021581594 -0.018556032 0.04831562 0.05864002 0.024664665 0.004105745 0.010471953 -0.0034435734 -0.07378883 0.08466161 0.032026168 0.069554016 -0.02111361 0.003994229 -0.09113653 0.13995154 0.008905411 -0.0046852524 0.00067524944 -0.0029502958 -0.06382915 -0.08366664 -0.1080802 0.006446821 0.044091195 -0.017810706 0.032746114 -0.11394766 0.1070314 -0.12792623 0.041418567 0.019189881 -0.009733785 0.104299955 0.07298434 0.007346213 -0.001356907 0.06790058 -0.082221754 -0.061379924 0.09835024 0.0024949834 -0.054152273 0.03159721 0.0041323593 0.006878926 0.1265283 -0.030666286 0.11628968 0.06591874 -0.07209115 -0.0019123137 0.012160162 0.07364669 -0.031531572 0.028779162 -0.11613498 -0.015145616 -0.0551496 0.05752305 0.04492619 0.06573085 -0.109696105 -0.058389053 -0.058353685 -0.11782157 -0.059772514 -0.04450737 -0.06957706 0.024587305 0.028644364 -0.0631318 -0.084802546 0.041147575 -0.03545432 0.033222243 -0.028456746 0.012248899 -0.16431826 0.020792184 0.00579594 -0.058529012 -0.071259394 -0.039456774 0.073979594 0.09800247 -0.07892317 -0.05776774 -0.04942163 0.11259299 -0.0010042612 0.10503981 0.037170235 0.052362014 -0.07605242 0.044104442 -0.0032965373 0.037247397 -0.036271762 -0.007884223 0.05555317 0.03925414 0.025839001 0.015946954 -0.03024022 -0.03337208 0.02094052 -0.013400854 0.11544569 0.11100997 0.09028878 0.037499096 -0.11242709 -0.012541535 0.0076806922 0.11820949 0.11214959 -0.0009510674 -0.03991941 -0.036201313 -0.09704438 0.048878945 -0.0022595304 0.073439196 -0.043472562 -0.0779441 0.0032978272 0.036219306 -0.011448 0.13274235 -0.055362206 -0.05590713 0.08513817 0.16148715 0.06644102 0.032886792 0.044611458 0.002990272 -0.05878055 0.017030874 -0.025322156 0.026913587 -0.0065587754 -0.028652266 0.051188223 -0.06891823 0.085554585 0.1229763 -0.006877132 -0.04998811 -0.045257468 -0.06560227 0.013172629 -0.052084558 -0.009950773 0.006428176 -0.056813322 -0.094906695 0.01681237 -0.0748576 -0.121347785 -0.05212241 0.006119627 0.03984901 -0.0007306254 -0.14390932 -0.084742025 0.05801834 -0.0275248 0.06589149 0.0084622195 -0.12916951 0.046771158 -0.0892864 0.07266752 0.053100154 0.09807018 0.14254032 -0.07555953 0.0019210386 -0.00010261923 -0.015216097 0.026438467 -0.07985296 -0.039303 0.020804022 0.06301419 0.06627395 -0.08157395 0.06924682 0.03525831 0.10607799 -0.014863605 -0.093991034 0.014524599 0.00013184834 0.021398436 0.047327843 -0.13339634 -0.06631893 0.08321899 0.011519394 -0.1767603 -0.05015443 0.12336354 0.04783422 -0.033119876 -0.021099962 0.0648779 0.10037948 0.039059285 0.05890462 -0.10511403 -0.017418088 0.011053904 0.022884643 -0.1074031 0.06426511 -0.01567587 0.13391924 -0.031980366 0.07108814 0.013946477 0.01522405 0.018630825 -0.076083735 0.008022595 0.01863101 -0.073082484 0.099382974 0.0038005456 -0.05291103 -0.03346509 -0.022285845 -0.024014428 0.086289525 0.013432854 -0.10223702 -0.0905853 -0.117468245 -0.0088570975 -0.054747656 -0.0010055858 0.028410714 -0.018115347 0.002492023 0.08462421 -0.013632605 0.039499406 -0.10563986 -0.118565544 -0.07111526 0.0009503257
r 0.02578856 0.05147405 0.08961018 0.022227162 0.034880143 -0.052566048 -0.032410365 -0.057405762 -0.08702147 -0.026980722 -0.062481023 -0.033096526 0.08141367 0.104914226 0.024940727 0.0010730358 0.06276718 0.011644237 -0.084075764 -0.0006962923 0.12624122 0.07448742 0.030097187 0.06394834 -0.028859032 -0.022302533 -0.036219817 -0.044279076 0.08659429 0.12097946 0.116665 -0.052554253 0.0092906 -0.034660134 -0.027753934 0.12094938 -0.053880665 0.06473598 0.004628701 -0.11705911 -0.05125941 0.01974621 0.09347829 0.037991293 0.02726232 0.07496115 0.026678516 0.025102662 -0.0155757 0.043993525 0.059111238 0.018033052 -0.009227505 0.0017307351 -0.0074971328 -0.08454774 0.08043255 0.028234484 0.07999773 -0.023865223 0.0057679615 -0.108374275 0.14087903 0.005334138 -0.0110126985 -0.0066617867 0.0015879843 -0.060591143 -0.08554772 -0.10457612 0.012763933 0.060377456 -0.019917157 0.03442075 -0.111179285 0.09915698 -0.13957523 0.048093565 0.025284149 -3.2137075e-05 0.10119161 0.065324575 0.0017965431 -0.0020799385 0.07525447 -0.09261625 -0.056531623 0.09728897 0.0020395832 -0.06213386 0.029482337 0.0063591367 0.0018458371 0.124239005 -0.036178786 0.1280426 0.075558305 -0.06888238 -0.002054548 0.016027043 0.07158198 -0.033362497 0.02453592 -0.12199744 -0.014786432 -0.050909895 0.062416427 0.045494597 0.0749731 -0.11575676 -0.058459677 -0.065119945 -0.11989332 -0.06038989 -0.049126837 -0.07694664 0.017033894 0.03630046 -0.06226325 -0.091008134 0.051383898 -0.03807599 0.035600983 -0.021757012 0.010801385 -0.17216912 0.023971988 0.0088720815 -0.06258126 -0.08851778 -0.04280056 0.07912935 0.10712991 -0.08543223 -0.050752368 -0.057344597 0.12121942 0.010934648 0.11009161 0.03331616 0.04971729 -0.082311615 0.044724368 0.0039328043 0.03086861 -0.026318474 -0.0178649 0.06451318 0.043063797 0.026222149 0.01730677 -0.024931539 -0.04300587 0.010160303 -0.0064018886 0.12040071 0.119689964 0.096254036 0.0325113 -0.11961832 -0.015606965 0.0096928375 0.11053375 0.11242287 0.010152515 -0.040380005 -0.03306481 -0.1059665 0.06064974 -0.0073458697 0.07004849 -0.040326223 -0.075738855 -0.003203019 0.03576517 -0.006408556 0.14041962 -0.050296478 -0.058215033 0.090998285 0.1681776 0.07287925 0.03286082 0.04440037 0.005306299 -0.050877627 0.024061074 -0.016855665 0.038642164 0.0003414235 -0.030958246 0.054433823 -0.07706491 0.08693358 0.12682243 -0.003450166 -0.045246653 -0.05018976 -0.068064384 0.0060318476 -0.04624233 0.006185361 0.005944637 -0.06646059 -0.1018468 0.026144834 -0.08024524 -0.124759205 -0.054577902 -0.0001697958 0.040269393 -0.0078071505 -0.15292482 -0.09303302 0.05523752 -0.022441907 0.066222064 0.0051869033 -0.12786832 0.04293352 -0.08710868 0.07102661 0.052128218 0.10945198 0.12867726 -0.073912755 0.011559438 0.0028754054 -0.011635255 0.034230467 -0.07293526 -0.038843222 0.026754947 0.046486154 0.05863491 -0.07598139 0.058545902 0.021674488 0.09357889 -0.014226754 -0.087903276 0.01743723 -0.0007754782 0.028754048 0.039097816 -0.12135279 -0.06401814 0.08193816 0.0019637228 -0.16843283 -0.04113211 0.115367964 0.046870567 -0.03277634 -0.019739866 0.06076816 0.08822155 0.0394671 0.06196472 -0.09390732 -0.0058904737 0.01356897 0.024030048 -0.09995619 0.063682795 -0.018130003 0.12938768 -0.02454109 0.06410397 0.015787434 0.018513566 0.026194561 -0.066113144 -0.0053565935 0.023088388 -0.07791109 0.09535705 0.0004336822 -0.055229176 -0.035919476 -0.019537237 -0.019119997 0.0826301 0.015300257 -0.112128936 -0.09171494 -0.10455506 -0.009413143 -0.04937246 -0.009089118 0.022726394 -0.022210253 0.007975291 0.08886151 -0.014607286 0.04279241 -0.10210092 -0.115839794 -0.07702285 0.0055123437
t 0.030397749 0.045910817 0.08320431 0.027738877 0.043216307 -0.054519802 -0.04454151 -0.051400118 -0.08264873 -0.02476273 -0.06179759 -0.038818534 0.0866438 0.105628215 0.022453476 0.013105298 0.05638886 0.02213274 -0.075922385 0.0064497446 0.11244476 0.07956956 0.027375907 0.05931093 -0.022111475 -0.020952212 -0.028443439 -0.0454591 0.07846338 0.105876125 0.10967039 -0.03946896 0.003992412 -0.030198395 -0.036126837 0.12987384 -0.056192014 0.060007483 -0.0031699194 -0.112507775 -0.060437426 0.026427586 0.085783474 0.039637692 0.018874144 0.073923066 0.030160354 0.022073098 -0.0143669 0.044252925 0.066930376 0.01607437 -0.007041375 0.0054695057 0.000773922 -0.07373189 0.0740293 0.022623802 0.072572455 -0.017356612 0.0071266056 -0.10300997 0.1398452 0.010028404 -0.0074143847 -0.00620504 0.00020417283 -0.059951626 -0.06975835 -0.09982452 0.018488467 0.056723375 -0.014525633 0.036345962 -0.10970421 0.097570926 -0.12982391 0.039211262 0.013275282 0.0034340888 0.10130446 0.06820536 0.00077906175 -0.0021102559 0.080177076 -0.08731552 -0.048096977 0.09123421 0.0036243282 -0.06639654 0.02502553 -0.008167749 0.0055767708 0.12402364 -0.0334273 0.1278347 0.06879474 -0.07001184 -0.0063620387 0.022680307 0.07443497 -0.046845615 0.025923738 -0.11916023 0.0021834534 -0.049729723 0.05442627 0.035435252 0.07292951 -0.11520605 -0.06103159 -0.066751786 -0.11533214 -0.064048305 -0.054428212 -0.0779834 0.015599678 0.03231892 -0.054127745 -0.092028074 0.04191163 -0.0278892 0.025223847 -0.025168644 0.0051035224 -0.16196454 0.0184513 0.018184744 -0.055344097 -0.087256536 -0.04389183 0.07332393 0.10303188 -0.08148589 -0.038405534 -0.066499926 0.1062809 0.01136516 0.09258881 0.02867927 0.051471584 -0.080460206 0.03207845 0.0036473272 0.03519699 -0.025128108 -0.020360455 0.07167307 0.043467395 0.022517364 0.011856476 -0.021781841 -0.043893002 0.008833711 -0.0034179704 0.108382866 0.1117983 0.104292 0.037747927 -0.10850474 -0.023250656 0.0149872545 0.11705407 0.11603946 0.012635612 -0.04190872 -0.04119564 -0.09523729 0.056287766 -0.009172962 0.07371027 -0.03932147 -0.07108591 -0.012369864 0.030804226 -0.014222774 0.12560447 -0.05253003 -0.04668245 0.07806579 0.15996486 0.060231127 0.04328138 0.038992114 0.0016975997 -0.04519337 0.024896331 -0.023866925 0.036607835 -0.008182926 -0.023699738 0.045114823 -0.07436003 0.085298575 0.11420109 -0.0055835014 -0.039166845 -0.04554121 -0.06070511 0.011258315 -0.0406319 0.0044495845 -0.0029671448 -0.062122405 -0.093939364 0.02239743 -0.0714092 -0.12195591 -0.042043228 -1.1629752e-05 0.034505483 -0.008328106 -0.1458266 -0.09048473 0.056031644 -0.020155195 0.058166113 0.0044734455 -0.12198235 0.04294098 -0.09121748 0.065987766 0.041307285 0.10044471 0.12771669 -0.07802189 0.009405103 0.002874515 -0.001083804 0.041055948 -0.07047708 -0.044766206 0.024294626 0.05268238 0.057855677 -0.08458896 0.061624814 0.025270693 0.08432651 -0.009619143 -0.095337756 0.021000836 0.010653463 0.026641363 0.045458373 -0.115375236 -0.06020132 0.06893666 0.0035799148 -0.17206778 -0.04932553 0.11147385 0.038836755 -0.042014107 -0.021032335 0.071426764 0.09311809 0.04201852 0.059900563 -0.09386817 -0.009039786 0.014319864 0.01973599 -0.092490025 0.06863433 -0.009518898 0.120941356 -0.027056418 0.06245834 0.013713808 0.028080188 0.020731015 -0.067925125 -0.008083413 0.015636606 -0.07516477 0.09621767 0.007995342 -0.04368158 -0.03639405 -0.030501008 -0.029268522 0.079422176 0.01466321 -0.112802066 -0.08984365 -0.111406095 -0.007167103 -0.057093818 -0.008210975 0.016492734 -0.033988442 0.00031535875 0.11214563 -0.027402943 0.04694875 -0.12245877 -0.14373712 -0.099081576 0.009684238
a 0.041965526 0.050417483 0.10469654 0.032887444 0.049392898 -0.055874318 -0.046568327 -0.054041293 -0.09139353 -0.028290806 -0.07016417 -0.046336547 0.086614445 0.12603675 0.016751548 0.01660013 0.047811255 0.028521508 -0.087176 -0.0019878037 0.11731547 0.070463836 0.022823192 0.05480766 -0.016254103 -0.030405676 -0.029029856 -0.039604597 0.086006224 0.10271394 0.113637395 -0.043879334 -0.0053412784 -0.025294937 -0.03318394 0.13527602 -0.0648552 0.073348954 0.00015321096 -0.12276565 -0.049298197 0.019510137 0.090013936 0.043222666 0.016118305 0.07131856 0.028449696 0.032988694 -0.0130321 0.04378336 0.0714007 0.01527877 0.0014783323 0.0043628896 0.001032023 -0.06540984 0.08087126 0.029923832 0.06867707 -0.022598846 0.005892642 -0.103109345 0.15027492 0.008422986 -0.011789182 0.0008268558 0.0042383443 -0.06307092 -0.09067281 -0.10084685 0.020062912 0.06555027 -0.023656925 0.04374733 -0.1119146 0.10932497 -0.1450272 0.05158231 0.0092006745 0.014587875 0.0970826 0.078633495 -0.0010081374 -0.013503029 0.08554704 -0.10022353 -0.04814214 0.08071739 0.009913826 -0.07395589 0.029763132 -0.018343197 0.009155022 0.13995184 -0.036379706 0.1228664 0.06479374 -0.071385376 -0.014118211 0.031303216 0.08692624 -0.056974337 0.03770615 -0.13773006 0.010246487 -0.05301098 0.047673512 0.035612382 0.0721328 -0.1218542 -0.066742875 -0.07096345 -0.11590181 -0.058084346 -0.06228411 -0.09424565 0.01963228 0.03713568 -0.060606252 -0.10268758 0.046283543 -0.030047944 0.027434606 -0.036121864 0.01513412 -0.16573633 0.015923034 0.006008436 -0.047738325 -0.0870134 -0.03960774 0.073039494 0.11646212 -0.0768913 -0.032736365 -0.07695966 0.10580682 -0.006338392 0.09308338 0.017665286 0.058058076 -0.08588376 0.028450515 -0.0032226443 0.03787375 -0.027112167 -0.017743913 0.074273966 0.04076428 0.021085378 -0.003569812 -0.027601555 -0.024997609 0.019006915 -0.0054090014 0.10834324 0.11167786 0.109710045 0.037946835 -0.09610078 -0.028589854 0.017388491 0.11698474 0.12388662 0.007724168 -0.043572154 -0.042659845 -0.092808135 0.044726536 -0.0045753233 0.073530085 -0.0423247 -0.073372826 -0.013783447 0.046308577 -0.01360522 0.12782815 -0.052520845 -0.052821714 0.07900007 0.16049917 0.0570558 0.04391325 0.0401269 0.0017556216 -0.03895224 0.024133379 -0.020803673 0.03757321 -0.025669677 4.2209135e-06 0.04631877 -0.06508131 0.08422104 0.101055644 -0.007089749 -0.039644737 -0.04351125 -0.05718785 0.016012363 -0.057568304 -0.005319388 -0.011230668 -0.04370363 -0.08867427 0.0266819 -0.065410055 -0.12012862 -0.040025 -0.0037884843 0.03942031 -0.00013954188 -0.12756187 -0.08812951 0.053386327 -0.022349404 0.05102614 0.00027888603 -0.11880579 0.03296979 -0.083902806 0.06048961 0.04295581 0.08522714 0.117199376 -0.0718644 0.009269135 0.010681278 0.0101746945 0.039061625 -0.0695636 -0.05095043 0.03483133 0.04978818 0.047970995 -0.08560673 0.063995264 0.036952917 0.085617535 -0.006016484 -0.08871251 0.025782544 0.0069080563 0.028285326 0.048403792 -0.11607648 -0.073153906 0.081723295 0.0070270463 -0.16176261 -0.048785057 0.11427671 0.03274895 -0.04558439 -0.021027278 0.07061335 0.07785076 0.043762803 0.06968185 -0.09373431 -0.0075458256 0.006271181 0.012232418 -0.08805344 0.052093845 -0.0032654789 0.10685036 -0.031007301 0.06558141 0.0121427765 0.033948384 0.021459084 -0.05929881 -0.010476751 0.013984459 -0.068454646 0.088457435 0.018005718 -0.033090554 -0.04141677 -0.03560742 -0.023317715 0.072915055 -0.0015123442 -0.09651107 -0.096228935 -0.094086155 -0.0030499992 -0.05640183 -0.014164258 0.009857848 -0.028975956 -0.0018945194 0.105367176 -0.029126758 0.04550388 -0.11606147 -0.13207035 -0.09435244 0.0005284555
o 0.042645622 0.051541276 0.11178304 0.034666236 0.050022036 -0.059175268 -0.056199305 -0.053686816 -0.09855603 -0.027777245 -0.06858619 -0.045358986 0.08745977 0.13065712 0.018031117 0.011708785 0.04889552 0.027629334 -0.08999334 -0.0022108592 0.116226375 0.073212445 0.02700077 0.06099684 -0.0180181 -0.02555648 -0.029005235 -0.038368486 0.08426298 0.0987909 0.11128452 -0.040479958 -0.0065770126 -0.03148846 -0.031729743 0.13949576 -0.06070008 0.072509184 -0.002204207 -0.12179182 -0.04863505 0.020966766 0.093194626 0.04914438 0.015874222 0.06774656 0.028088996 0.03112958 -0.011187416 0.04413268 0.07428195 0.014732642 -0.0036510138 0.005418985 -0.0035445075 -0.06863558 0.08072861 0.024365738 0.07244177 -0.017288744 0.007649395 -0.10802481 0.15593947 0.008770861 -0.012528305 -0.0015892021 0.0048536668 -0.06563623 -0.08879313 -0.0991088 0.02936633 0.07091008 -0.0206938 0.042909086 -0.115540564 0.10556263 -0.15007153 0.049858518 0.014292815 0.019946894 0.09573859 0.0743724 -0.0010357859 -0.0147835445 0.0879015 -0.103915095 -0.04761932 0.08058161 0.013257864 -0.08065847 0.025739944 -0.020500608 0.010110598 0.14444514 -0.037920572 0.13447559 0.06675134 -0.072299615 -0.011262678 0.03382119 0.091329545 -0.058692727 0.03889449 -0.14276011 0.016900416 -0.053354673 0.048797343 0.033981748 0.08006282 -0.12791295 -0.072586864 -0.07414582 -0.12482342 -0.06285442 -0.06824106 -0.09787617 0.021192493 0.042069007 -0.05787471 -0.10826877 0.047843 -0.03237154 0.024634141 -0.038091403 0.010967409 -0.16967803 0.017429031 0.009940662 -0.048286866 -0.09703264 -0.043013748 0.07410994 0.12261628 -0.07945443 -0.022749135 -0.08328783 0.10762439 0.00043144287 0.09065131 0.017828183 0.0621632 -0.09021559 0.022458844 0.0017699021 0.03576869 -0.02421698 -0.02290474 0.081367575 0.04468229 0.018744506 -0.007232978 -0.022295523 -0.031310983 0.012472168 -0.0037333746 0.105814755 0.11003873 0.11657302 0.03584709 -0.09793509 -0.031002618 0.024231179 0.11598921 0.1262521 0.013860493 -0.050681304 -0.041594747 -0.09352918 0.049239025 -0.00752457 0.07170409 -0.036946777 -0.07491398 -0.019887716 0.045190495 -0.016996851 0.12707734 -0.05008914 -0.05039871 0.08022259 0.16100916 0.056221988 0.04542958 0.04179243 0.0011356707 -0.03059804 0.023470895 -0.019395923 0.044696443 -0.024725521 0.0056730495 0.04643955 -0.07053744 0.084371515 0.10040091 -0.008595278 -0.033204842 -0.047243744 -0.05522802 0.011970402 -0.056229424 -0.00053800043 -0.014868049 -0.046489585 -0.086041555 0.03286755 -0.06174062 -0.11830757 -0.03620797 -0.0044936296 0.03673325 -0.0029360314 -0.13237533 -0.08826625 0.049140714 -0.019458653 0.04747012 -0.0014586272 -0.11450571 0.031456966 -0.08485191 0.05733794 0.037759945 0.08366018 0.11351336 -0.07303851 0.0127570275 0.010396744 0.013396991 0.042417552 -0.067872666 -0.053379744 0.040146843 0.04449896 0.046810165 -0.086596 0.06032239 0.033793904 0.07843493 -0.00598283 -0.09037411 0.027547086 0.010072442 0.029216629 0.048236333 -0.110569336 -0.07178048 0.07890747 0.0031521951 -0.16642745 -0.045550484 0.11581235 0.028495587 -0.048566755 -0.019959701 0.072964095 0.076411724 0.04231651 0.07490672 -0.088023804 -0.0042575295 0.01130939 0.007889485 -0.08555791 0.05521321 -0.0037291686 0.10435568 -0.029618697 0.06730904 0.008331481 0.035754133 0.02334174 -0.05401068 -0.017095493 0.016166668 -0.0713647 0.09215319 0.018023748 -0.03502693 -0.043807164 -0.037384346 -0.029256294 0.0725986 0.003881724 -0.105355695 -0.10199587 -0.09230227 0.0012756262 -0.060221482 -0.012438126 0.008045343 -0.03540923 -0.0019997489 0.124957085 -0.03103313 0.05245035 -0.13272913 -0.15737659 -0.11222763 0.005894685
l 0.033485804 0.048715115 0.09287448 0.02642716 0.044027526 -0.058247954 -0.038816087 -0.057588108 -0.08414943 -0.02485285 -0.06911942 -0.039896365 0.08767297 0.11096114 0.025467224 0.0070381165 0.06013753 0.019030219 -0.08754902 0.0010384277 0.12442299 0.078211375 0.028204644 0.06372022 -0.025247628 -0.025085395 -0.033906452 -0.042043593 0.08434815 0.11593711 0.11941666 -0.044433847 0.0029697157 -0.030338198 -0.035502188 0.12799712 -0.05871319 0.06585139 -0.00094959623 -0.115725644 -0.054763194 0.023285221 0.09445049 0.042493988 0.020620935 0.07228526 0.02788467 0.029699905 -0.011968971 0.042282004 0.06629913 0.019783331 -0.0026345707 0.0041363933 -0.005368796 -0.078579664 0.08334487 0.022878462 0.07632672 -0.018255819 0.009866779 -0.106636666 0.14783515 0.009927881 -0.009681284 -0.007127343 0.0036404699 -0.065708265 -0.08085512 -0.104677096 0.021421194 0.059331656 -0.016430454 0.0373956 -0.11496082 0.09839759 -0.14120138 0.043736637 0.019607458 0.006653353 0.1032285 0.06790705 -0.0006402802 -0.00425022 0.08168637 -0.093605414 -0.0535792 0.09537637 0.0038708863 -0.06665392 0.028229214 -0.0011058821 0.0037548987 0.13483524 -0.032471795 0.12996386 0.073441595 -0.07203891 -0.0027757424 0.022391 0.078664295 -0.044372395 0.02644362 -0.1291439 -0.0026088287 -0.052123465 0.055483136 0.04176473 0.07565333 -0.123017885 -0.06456041 -0.068574466 -0.12302729 -0.06546086 -0.05746875 -0.079096526 0.019785881 0.039081283 -0.058509216 -0.09676456 0.047996588 -0.03259012 0.029948914 -0.02791441 0.01214814 -0.17031205 0.021310082 0.012961502 -0.06128569 -0.088556275 -0.042761657 0.07913271 0.11338319 -0.08509284 -0.044182446 -0.06746325 0.11777527 0.007797811 0.102317736 0.02967115 0.056065038 -0.08474431 0.035659175 0.00092545693 0.035373155 -0.02805506 -0.017798694 0.073904455 0.0475791 0.0252851 0.009744968 -0.02622148 -0.04301229 0.0103291925 -0.0042768857 0.11603827 0.11566074 0.10850161 0.03745476 -0.116914935 -0.02333236 0.015661538 0.12056633 0.11991779 0.00913761 -0.046392433 -0.039830223 -0.10268397 0.05545153 -0.010790551 0.072246596 -0.043004464 -0.07805597 -0.010570126 0.039953955 -0.0090572275 0.13892812 -0.055827547 -0.053798217 0.087731995 0.16653927 0.06858054 0.041405715 0.04051775 -0.0014029316 -0.04693519 0.024089834 -0.023151929 0.03913002 -0.0057147243 -0.019748444 0.047623955 -0.07543337 0.08970734 0.11867054 -0.006985558 -0.041161202 -0.0503029 -0.059428774 0.00910125 -0.049769193 0.0017313072 -0.0060359146 -0.06321216 -0.09709948 0.023098473 -0.0761124 -0.12496638 -0.048118945 -0.000953852 0.037982114 -0.00565058 -0.1468948 -0.09252051 0.053042397 -0.023841321 0.057678245 0.005401782 -0.122974634 0.04219759 -0.08746308 0.068014674 0.045824584 0.101472385 0.13016865 -0.0749822 0.012696411 0.0034545187 -0.004112547 0.036890175 -0.071971536 -0.046648607 0.02909925 0.04728289 0.05882193 -0.08168468 0.060372997 0.025364898 0.09224924 -0.0082019875 -0.091488555 0.018708127 0.0029903767 0.029060608 0.043425914 -0.1220517 -0.06891297 0.07516843 0.0018313065 -0.17299898 -0.046506338 0.11866237 0.041008487 -0.03725207 -0.01889986 0.07244167 0.089001045 0.03952011 0.065215856 -0.09373707 -0.005934893 0.015426611 0.016194694 -0.0931622 0.06356937 -0.012661943 0.122962594 -0.026492968 0.06503021 0.014711077 0.023730706 0.024766982 -0.06349368 -0.005918031 0.020786513 -0.0724389 0.09773993 0.0065894537 -0.049779847 -0.039793395 -0.02882621 -0.024200711 0.08250714 0.0154847065 -0.11342134 -0.094328865 -0.10646986 -0.005359965 -0.054181498 -0.0077694156 0.020313798 -0.02907989 0.0008492543 0.09803464 -0.023593673 0.042133786 -0.11024461 -0.12526631 -0.08734439 0.008865314
d 0.025854092 0.045531306 0.0834908 0.02360644 0.038975183 -0.05185933 -0.03871626 -0.055580754 -0.075920895 -0.02307425 -0.06197131 -0.036836807 0.08552297 0.10123361 0.023038385 0.015150963 0.05863564 0.020198863 -0.07105891 0.007254448 0.11155664 0.0762947 0.025281752 0.056550927 -0.025921963 -0.025298534 -0.03205721 -0.044434268 0.08160263 0.11038766 0.108784646 -0.04431289 0.008835657 -0.032058544 -0.035673816 0.13198742 -0.058402047 0.0642125 -0.00038468416 -0.11750465 -0.06365529 0.022257404 0.08716996 0.036367986 0.021208495 0.07794792 0.028345061 0.020101268 -0.018295804 0.041199103 0.06579264 0.014130904 -0.0062367013 0.004932358 -0.00035316197 -0.07899021 0.07636042 0.029847652 0.073520675 -0.022586374 0.0051911552 -0.10515375 0.13872993 0.0090211015 -0.011424758 -0.0073119123 -0.0040489957 -0.0632789 -0.07428464 -0.10785144 0.014440011 0.057062153 -0.020345494 0.03610363 -0.11404087 0.10475734 -0.13567108 0.044471562 0.017240148 -0.0024162622 0.103339754 0.06823985 0.00058058125 -0.0002540493 0.08091673 -0.087201744 -0.05338437 0.09789467 0.0029753612 -0.062271167 0.030097065 -0.0017764914 0.006045348 0.122439615 -0.03629374 0.12642081 0.07469626 -0.066787384 -0.0066419784 0.02111239 0.07372195 -0.044393804 0.026222833 -0.120542705 -0.009401771 -0.05427339 0.05693203 0.04227665 0.07426224 -0.11575421 -0.05756349 -0.06802288 -0.11256846 -0.059776966 -0.054456227 -0.07898502 0.013663592 0.030616023 -0.06130875 -0.08966027 0.047687236 -0.031167032 0.033352096 -0.019055234 0.0068933223 -0.16640785 0.018160166 0.012698604 -0.057821427 -0.08335336 -0.04583344 0.07245094 0.100498915 -0.08639711 -0.04902528 -0.05934359 0.11473456 0.009314869 0.10354119 0.028119894 0.049512457 -0.080618955 0.040930834 -0.0010146466 0.032771494 -0.029502971 -0.017676797 0.06733475 0.04198017 0.02953258 0.018907974 -0.024936847 -0.044438805 0.0150814215 -0.0053558457 0.11926286 0.11508145 0.100739636 0.035856605 -0.11674952 -0.020343741 0.01200453 0.11224328 0.11477187 0.011635779 -0.033269856 -0.038576573 -0.09988707 0.061233524 -0.0078661 0.07747009 -0.045482896 -0.070394576 -0.0058589466 0.028367408 -0.0076147583 0.13529198 -0.05186652 -0.052095734 0.08211421 0.16467686 0.06397997 0.03838291 0.040088344 0.00084461225 -0.051197454 0.025542744 -0.026603546 0.03333393 -0.0036162324 -0.032458544 0.04739532 -0.077854015 0.08362241 0.12323205 -0.00034573217 -0.04653455 -0.04695151 -0.06561962 0.012520324 -0.04035739 0.0033772686 0.004571326 -0.06132757 -0.09995167 0.021547092 -0.075691484 -0.12633213 -0.045716595 0.001892454 0.032188926 -0.007807506 -0.14912637 -0.094074264 0.057395436 -0.023345795 0.06654266 0.010536583 -0.1280204 0.043183208 -0.0928037 0.06796768 0.04496864 0.10689838 0.13093758 -0.07785973 0.0083283475 0.0013508738 -0.0072444025 0.039388843 -0.068039306 -0.042475943 0.021128355 0.05249415 0.05596003 -0.079742864 0.065478794 0.026153555 0.08672609 -0.009175139 -0.0941023 0.016597733 0.004393465 0.027478678 0.041975766 -0.115966514 -0.057828713 0.07418343 0.0034973172 -0.16368529 -0.044403594 0.11249585 0.041620947 -0.037982706 -0.020394962 0.064093255 0.09402864 0.038481854 0.05411308 -0.09419802 -0.012710376 0.01447477 0.020722792 -0.098589495 0.064095154 -0.011295509 0.12412797 -0.023586016 0.057971336 0.016455354 0.024836 0.02047911 -0.06698899 -0.007912748 0.019344449 -0.07265845 0.0967202 0.002919574 -0.04420452 -0.03193493 -0.024233326 -0.027152417 0.078943014 0.011577752 -0.10568191 -0.08207446 -0.1104485 -0.010773083 -0.051994 -0.010021559 0.018804042 -0.026227986 0.0046731546 0.09678722 -0.023996169 0.040337693 -0.10617739 -0.118278176 -0.07774794 0.0032231028
c 0.02719446 0.04711609 0.085699946 0.02256861 0.041672032 -0.05129743 -0.04506445 -0.052579053 -0.08300693 -0.025042681 -0.061044727 -0.034911226 0.085532054 0.110253796 0.026185403 0.014444739 0.05392461 0.020760693 -0.07602063 0.0068126624 0.11586354 0.07814228 0.027625384 0.058918394 -0.023281535 -0.023962164 -0.025083655 -0.044113718 0.083675444 0.10692519 0.10702371 -0.04213468 0.0021573429 -0.030026471 -0.031264756 0.1244416 -0.055064116 0.06234932 -0.005977365 -0.11456147 -0.05825419 0.026357215 0.090216 0.03732454 0.016793553 0.07495217 0.028807638 0.024087394 -0.017266609 0.043921165 0.06537517 0.013993663 -0.008853658 0.004070475 0.00030762394 -0.07277844 0.07481477 0.02605992 0.0740669 -0.025178023 0.011493826 -0.10855663 0.14068404 0.008929097 -0.009748975 -0.008597978 0.00059698866 -0.060429245 -0.07196161 -0.1001904 0.019787218 0.06195611 -0.018377146 0.034609012 -0.11035491 0.09720006 -0.13360935 0.044882968 0.012146473 0.006098666 0.10139016 0.0660057 -0.00079352176 -0.003624819 0.08085129 -0.08886509 -0.045230612 0.08429377 0.0063357768 -0.06345932 0.02530098 -0.0009952623 0.00481969 0.124078564 -0.033450656 0.12430062 0.065622196 -0.06726034 -0.008446233 0.021747522 0.074619144 -0.04825241 0.029779544 -0.11909508 0.0025448005 -0.050494056 0.05664548 0.035112813 0.07610118 -0.11345587 -0.0583554 -0.066865966 -0.10963815 -0.062978275 -0.057754505 -0.07895264 0.014047967 0.033683926 -0.056921132 -0.09045595 0.0451416 -0.026723966 0.030259347 -0.023961246 0.008300306 -0.1572371 0.014162639 0.014808067 -0.053870354 -0.08608324 -0.044979405 0.071195304 0.10124383 -0.08664474 -0.038653474 -0.06411867 0.10725443 0.008655805 0.09413496 0.026890581 0.048353158 -0.07661424 0.031985454 0.0007282457 0.03176421 -0.022436246 -0.01772374 0.07311925 0.041698802 0.024697443 0.0085202865 -0.025963843 -0.041324344 0.010885107 -2.218417e-05 0.1078897 0.111531995 0.100733094 0.036438465 -0.10693847 -0.02028648 0.013336195 0.11221526 0.108494915 0.0124227265 -0.040567983 -0.037640486 -0.09712268 0.055990048 -0.010158799 0.07220412 -0.039314907 -0.06817263 -0.009952454 0.030100536 -0.010907686 0.12440579 -0.050428763 -0.045221057 0.07796167 0.1543016 0.058652904 0.035908725 0.037250668 -0.00073836977 -0.044959046 0.0237093 -0.022382656 0.037918586 -0.009728291 -0.022470264 0.042316824 -0.07527336 0.080982395 0.10790213 -0.0051104617 -0.033996914 -0.040033117 -0.061621457 0.008540139 -0.04172753 0.0046133446 -0.002185573 -0.0591563 -0.09362596 0.026220106 -0.067831516 -0.11866481 -0.041593686 0.0029829936 0.028567601 -0.0087226005 -0.13682689 -0.089426294 0.054390535 -0.01682468 0.056362126 0.007819152 -0.114224024 0.040188096 -0.08548985 0.06057242 0.03720662 0.0940048 0.120255664 -0.07662882 0.006024821 0.0066069993 0.0027603784 0.03983159 -0.06547772 -0.03998804 0.026043473 0.045145076 0.050061554 -0.08176453 0.05821212 0.024818819 0.08292708 -0.011697216 -0.08892037 0.01769175 0.0089236405 0.021971703 0.04321255 -0.1124508 -0.05919303 0.06517134 0.0022117142 -0.16422434 -0.04439933 0.10575083 0.040332176 -0.04147334 -0.017039578 0.061408173 0.08797882 0.039089218 0.056014016 -0.08909198 -0.0084843105 0.011684702 0.013714041 -0.08729732 0.06475002 -0.0076835733 0.11362568 -0.024184402 0.05571475 0.0120802345 0.027676916 0.021165373 -0.060840365 -0.008587317 0.01961811 -0.0727211 0.08858334 0.003083192 -0.038707815 -0.035306618 -0.026807202 -0.026740236 0.07546447 0.013171201 -0.10578459 -0.08184629 -0.104983486 -0.0046017617 -0.052029036 -0.009390946 0.019632217 -0.03297929 -0.003136186 0.096282504 -0.02567004 0.04359394 -0.10406459 -0.13070698 -0.08592853 0.008923195
u 0.0364868 0.04815218 0.105969585 0.03086326 0.04643553 -0.058603123 -0.05051879 -0.0529397 -0.09544594 -0.029542152 -0.06676021 -0.041595247 0.083014116 0.12572978 0.017740032 0.011363684 0.05152481 0.022756249 -0.08391349 -0.0015206876 0.12183933 0.07339857 0.026634356 0.058305815 -0.01787059 -0.025547333 -0.026307797 -0.03816329 0.085641935 0.104513325 0.11367854 -0.04474264 -0.0040725954 -0.029104747 -0.028929798 0.13364565 -0.06218073 0.07380809 0.00028146344 -0.12497707 -0.054366093 0.020303553 0.094547935 0.043729402 0.016667886 0.0719527 0.026939895 0.03210493 -0.012687689 0.044997428 0.07309365 0.016448941 -0.008780494 0.0056959614 0.00077000825 -0.070009574 0.08079474 0.028763352 0.07411751 -0.024424786 0.0091518285 -0.11186556 0.15152934 0.005532863 -0.012574216 -0.004411995 0.0032212383 -0.062358826 -0.0896845 -0.099584915 0.024284018 0.06606455 -0.024446255 0.043355845 -0.114299804 0.10740496 -0.15094449 0.053476367 0.012278218 0.014525096 0.101259775 0.07716507 -0.0031208482 -0.012819551 0.08621369 -0.1044146 -0.051354773 0.08117907 0.008373291 -0.07505467 0.026281452 -0.013576617 0.009132567 0.14349402 -0.037025444 0.1324058 0.06901823 -0.07222579 -0.012812067 0.027685085 0.08930619 -0.055026386 0.039424613 -0.13992177 0.010613712 -0.053550474 0.056669578 0.03427487 0.08109563 -0.122861445 -0.070677705 -0.072328724 -0.12007693 -0.06598094 -0.06469672 -0.096558765 0.020202689 0.04120506 -0.06337916 -0.10522696 0.052379627 -0.034476817 0.031855617 -0.03803332 0.010689874 -0.17383079 0.012747934 0.013499662 -0.053561762 -0.0941265 -0.046450984 0.077086404 0.117688596 -0.08656032 -0.031895645 -0.077013426 0.10953925 -0.003288596 0.09532429 0.020251006 0.055405065 -0.08944226 0.026961895 0.0015239238 0.033414315 -0.02335415 -0.019507295 0.080744475 0.039529238 0.021140696 -0.0033329618 -0.026839538 -0.031686135 0.016546628 -0.006241588 0.10818788 0.11768859 0.11436601 0.039186772 -0.10285771 -0.027193831 0.019546486 0.11467267 0.12428088 0.01418835 -0.04809609 -0.040137284 -0.10026752 0.050385293 -0.0040967707 0.0727536 -0.039687186 -0.07269116 -0.016014243 0.04361815 -0.015129257 0.13249084 -0.048712716 -0.051023137 0.07811498 0.1648561 0.05918333 0.04128004 0.040840484 0.0020097527 -0.03785128 0.025989546 -0.019188926 0.043510024 -0.022054614 -0.003565705 0.046165906 -0.073110975 0.08263752 0.10807628 -0.0101038525 -0.037654847 -0.046029042 -0.061136875 0.013137626 -0.052416228 0.0027472395 -0.010355086 -0.052610077 -0.09060167 0.033698563 -0.06435815 -0.12198583 -0.039293762 -0.0020057948 0.037086338 -0.0044590165 -0.133951 -0.09420534 0.054914966 -0.017039815 0.05628187 0.00248018 -0.11926609 0.03227806 -0.08781662 0.060244136 0.042851433 0.08964518 0.11547646 -0.07434995 0.009031638 0.007509499 0.006875204 0.039588936 -0.068467796 -0.04712962 0.0334706 0.047560707 0.04790499 -0.08639916 0.060841493 0.035412837 0.08381745 -0.0074456437 -0.08756546 0.026519928 0.010355184 0.028795656 0.04410511 -0.11426386 -0.07133718 0.08131114 0.0051463344 -0.16842869 -0.043800946 0.11376772 0.032526642 -0.044332094 -0.020053275 0.06692209 0.0825385 0.044759225 0.06672821 -0.093205124 -0.008071823 0.007290994 0.013653993 -0.088238135 0.0584409 -0.006053583 0.11019975 -0.026814727 0.061784077 0.01082121 0.03440783 0.02345433 -0.05595606 -0.012087017 0.017255122 -0.07442861 0.0894252 0.012938993 -0.038640197 -0.042090826 -0.035868086 -0.024695653 0.07798505 0.004857252 -0.10703512 -0.0969636 -0.09951036 -0.0037081377 -0.053326733 -0.014894894 0.015235749 -0.032832 -0.00014046514 0.11412513 -0.028109446 0.048687223 -0.11727574 -0.14578761 -0.09715296 0.0054158573
p 0.031843722 0.047850773 0.08965514 0.027698366 0.039655045 -0.05030344 -0.04466497 -0.052644826 -0.07978348 -0.027857527 -0.058764264 -0.03525799 0.079515174 0.105430245 0.021590604 0.018902902 0.049584042 0.021689426 -0.07306983 0.0035590508 0.112822674 0.07368632 0.022947222 0.05350856 -0.018462218 -0.024884779 -0.029508801 -0.04366897 0.08300324 0.10605504 0.10207488 -0.04304949 0.0055769007 -0.029775681 -0.028387967 0.13221088 -0.05832383 0.066219054 -0.004408648 -0.12016762 -0.058925565 0.02444485 0.08735249 0.038348068 0.016349588 0.07484311 0.029994993 0.025499908 -0.017792875 0.045092646 0.0697899 0.016556874 -0.00591549 0.0004930432 0.0038147443 -0.07242982 0.07474859 0.03113159 0.07113451 -0.025855713 0.0062009785 -0.104717806 0.13634263 0.010279595 -0.010781457 -0.006388564 -0.0012428412 -0.0608148 -0.08075212 -0.10391749 0.014076686 0.064622626 -0.020385252 0.038617045 -0.11144379 0.104499996 -0.1348353 0.04764129 0.010689949 0.0029494208 0.098058954 0.0716162 0.0017846811 -0.0075751 0.08379098 -0.092566915 -0.04406898 0.0871281 0.0045430507 -0.06142492 0.028295064 -0.0071177175 0.007164625 0.1221296 -0.033855937 0.11954116 0.0676979 -0.06892308 -0.0091413045 0.021654956 0.07698185 -0.048495542 0.028371695 -0.12190687 -0.0013746875 -0.051559832 0.055205856 0.037723795 0.074062794 -0.11140425 -0.055617675 -0.06790765 -0.10795822 -0.061558187 -0.05469808 -0.081653394 0.013938145 0.031894866 -0.05891476 -0.092854686 0.048154168 -0.028605625 0.033757973 -0.019821336 0.009803069 -0.16025336 0.013239751 0.008496697 -0.053148974 -0.081031226 -0.044933166 0.07089138 0.099674866 -0.08266576 -0.03959552 -0.06674966 0.103182346 0.0058567263 0.09190317 0.02051394 0.04342919 -0.07621397 0.032455403 -0.0019882303 0.02878004 -0.024610769 -0.01759777 0.07033083 0.035789993 0.025459783 0.009705463 -0.021555547 -0.03279689 0.014651338 -0.0014469207 0.11074315 0.1089857 0.092792995 0.03521474 -0.104413696 -0.023882754 0.010056585 0.10633409 0.11029184 0.013947894 -0.031329963 -0.038186915 -0.09599566 0.050979618 -0.009349716 0.072729126 -0.041878752 -0.06225498 -0.007413222 0.029799616 -0.011679483 0.1214208 -0.051978953 -0.046048585 0.07397329 0.15170534 0.057593923 0.03749312 0.03324321 0.0045040934 -0.04467046 0.025626823 -0.021216528 0.034528784 -0.014050597 -0.022267064 0.047560573 -0.07221113 0.07813254 0.10824131 -0.0062201237 -0.04045113 -0.041724913 -0.06241298 0.008344813 -0.04334364 0.006910665 0.00050067867 -0.05139843 -0.09498871 0.02524993 -0.06556281 -0.12079093 -0.03955223 -0.002219534 0.034504514 -0.008612157 -0.1374214 -0.09095345 0.05160998 -0.020931724 0.061304122 0.004182698 -0.1179517 0.03802042 -0.08799338 0.06063769 0.04055542 0.09505878 0.11625834 -0.0745129 0.010027988 0.004498333 0.004552556 0.03755127 -0.06509785 -0.042813472 0.02590047 0.04836384 0.049029514 -0.07997915 0.05946408 0.029739581 0.07897282 -0.00925518 -0.090971716 0.021239042 0.006025167 0.022258976 0.046414275 -0.111409366 -0.06097491 0.07282003 0.0016644667 -0.15801226 -0.04607628 0.10330208 0.03853252 -0.0429032 -0.019404178 0.057332654 0.08821296 0.042021733 0.053642478 -0.09009944 -0.010353993 0.0089241415 0.015020464 -0.09108193 0.058098502 -0.0088151265 0.11623606 -0.02172025 0.056197986 0.014514287 0.028970577 0.022090012 -0.06464485 -0.007833848 0.016351528 -0.073481865 0.08930658 0.0059985826 -0.035384487 -0.030224288 -0.029417029 -0.024119673 0.0704715 0.0051968414 -0.10033053 -0.08360031 -0.10163091 -0.006425735 -0.052993074 -0.011565291 0.015994705 -0.029134171 0.0010619954 0.09573584 -0.029312413 0.04222805 -0.102587625 -0.12120684 -0.08133973 0.005813957
g 0.03134441 0.04718965 0.09019201 0.02646277 0.04590462 -0.058660783 -0.050439727 -0.04913868 -0.08572913 -0.024279635 -0.064434715 -0.040834203 0.088722214 0.11692733 0.02600896 0.015366916 0.055130005 0.024102053 -0.08145788 0.0054200324 0.109951936 0.08058145 0.031140298 0.06201767 -0.025692564 -0.020393405 -0.023191435 -0.042702887 0.083665 0.10502267 0.11038975 -0.03914023 -0.0028358905 -0.03099473 -0.03397776 0.12700656 -0.054266132 0.062426526 -0.0058959005 -0.112317 -0.058535516 0.027633226 0.08996245 0.042061426 0.0147201335 0.07156241 0.02883476 0.024866953 -0.017153649 0.04171127 0.06623718 0.012210186 -0.0104857255 0.005906635 -0.00082546123 -0.06901297 0.0777227 0.018911712 0.07570329 -0.020893658 0.013334328 -0.107709266 0.14599222 0.0071654622 -0.007880329 -0.008680022 0.005628841 -0.065498605 -0.06769024 -0.099674866 0.02529735 0.062965736 -0.015563989 0.040068265 -0.108881 0.09690936 -0.13824354 0.041909546 0.010217556 0.0082432935 0.0994907 0.06795887 -0.0048735053 -0.005668218 0.080168635 -0.08887595 -0.044697676 0.082157224 0.008477124 -0.06880687 0.023536416 -0.009358746 0.0065698954 0.13292477 -0.03632422 0.129431 0.06953728 -0.067202345 -0.010709552 0.024770068 0.08001429 -0.054589283 0.034877397 -0.12818311 0.01224075 -0.050261464 0.051676106 0.035127036 0.07544757 -0.11627625 -0.06551764 -0.067673795 -0.115532555 -0.063391864 -0.06360448 -0.08339074 0.01505894 0.03738917 -0.056135885 -0.0948116 0.042258047 -0.023564553 0.023299664 -0.031304844 0.0056700055 -0.16010037 0.01156795 0.021220846 -0.051384684 -0.0894347 -0.046466764 0.07269711 0.10880125 -0.08779436 -0.029183468 -0.066265225 0.106434986 0.00956909 0.08934831 0.027970036 0.0564922 -0.08052688 0.026191013 0.0014461211 0.036455777 -0.021640118 -0.020422164 0.077810965 0.046434566 0.024587536 0.005427975 -0.02510276 -0.04414099 0.009457957 0.00016948591 0.10351227 0.111370586 0.11287114 0.03974579 -0.10363458 -0.023761742 0.019303933 0.11950851 0.115355946 0.01250065 -0.04631631 -0.03859706 -0.09288001 0.058389015 -0.011875375 0.07383605 -0.039916158 -0.06964191 -0.0171101 0.034666188 -0.015258266 0.1254819 -0.04722971 -0.047280755 0.0794485 0.15712285 0.051263094 0.04374018 0.043026116 -0.0018935945 -0.037049484 0.027388586 -0.022354305 0.04182289 -0.011111362 -0.014615575 0.04013397 -0.07468054 0.08028282 0.10430821 -0.0063216966 -0.029688394 -0.04126002 -0.0591278 0.011857441 -0.04148037 0.0020392092 -0.008011921 -0.059807345 -0.09088906 0.025711218 -0.0687433 -0.1176986 -0.037514817 0.0020793665 0.026890183 -0.004625545 -0.13579462 -0.08584822 0.053720545 -0.017518 0.053271674 0.0068987827 -0.11517063 0.03728195 -0.08804676 0.05670632 0.034623142 0.089319155 0.11922366 -0.07920671 0.004916438 0.0068735606 0.0070434106 0.043974105 -0.06507259 -0.04529047 0.030001266 0.045159817 0.051491376 -0.08533279 0.062535316 0.026569987 0.08073039 -0.009473635 -0.09067725 0.017358398 0.014758653 0.026653102 0.04212243 -0.11134945 -0.063828796 0.063734405 0.002207883 -0.16664088 -0.044272926 0.11248459 0.03844832 -0.041727714 -0.015016509 0.07163921 0.08456159 0.04247584 0.06427241 -0.08775342 -0.01017106 0.013636284 0.015754696 -0.08853246 0.067558914 -0.0031687801 0.10906059 -0.026627846 0.0603381 0.013235609 0.032396697 0.020038255 -0.059952185 -0.012348592 0.014922007 -0.06808967 0.09026373 0.009761954 -0.035277173 -0.039955135 -0.030033326 -0.031960037 0.08007506 0.014946285 -0.10671066 -0.08492241 -0.10588288 0.00015210276 -0.05317878 -0.009411267 0.012737828 -0.03764796 -0.007083573 0.11184047 -0.026888441 0.048838384 -0.11951848 -0.15084481 -0.103476025 0.0061692274
m 0.027434327 0.04592657 0.086285055 0.023218859 0.039632294 -0.051113278 -0.045019064 -0.05255565 -0.07907593 -0.026211532 -0.06021956 -0.037388805 0.08309568 0.108505264 0.02317812 0.013030166 0.05552388 0.020635411 -0.0745335 0.005882296 0.113445915 0.0771364 0.02721436 0.057993196 -0.023365807 -0.022275371 -0.026843911 -0.04232429 0.08261975 0.105811745 0.10503575 -0.04216793 0.004773181 -0.030608693 -0.03197367 0.12815733 -0.05386125 0.06234442 -0.0047909 -0.116527125 -0.059554942 0.025128955 0.08867818 0.0379202 0.018938465 0.07273843 0.026618958 0.02556087 -0.018234536 0.041696616 0.06798923 0.015278717 -0.010184708 0.00423814 -0.0013664666 -0.0742852 0.075020224 0.027010283 0.072436504 -0.023528265 0.009473981 -0.1062265 0.14115438 0.009201626 -0.009976826 -0.0071607833 -9.388935e-05 -0.062326983 -0.07308718 -0.101892635 0.018197207 0.061885916 -0.017396633 0.03685038 -0.11121021 0.09942452 -0.13324636 0.047067694 0.014168227 0.004415984 0.09959976 0.06668853 0.0002053228 -0.0062479167 0.08078066 -0.08962053 -0.04592999 0.08659752 0.0040839 -0.06451329 0.028029837 -0.002905712 0.0072513786 0.12550603 -0.031961404 0.1239215 0.068008766 -0.06697834 -0.0069706296 0.020644853 0.07382327 -0.04490822 0.03109701 -0.11931503 -0.0003590642 -0.051762387 0.054084472 0.03720365 0.076194316 -0.112362385 -0.060423464 -0.06548397 -0.109717295 -0.06259987 -0.055685792 -0.078350924 0.013383677 0.034613986 -0.057282664 -0.09076882 0.04641756 -0.028883025 0.029608645 -0.023607275 0.0075923875 -0.16111512 0.013279656 0.015053795 -0.052881215 -0.085937 -0.046074957 0.06989218 0.101608016 -0.084489085 -0.038506724 -0.06407082 0.10810602 0.0062597576 0.093093574 0.026471881 0.04861483 -0.07838019 0.034032147 -0.000998006 0.031577203 -0.021404753 -0.019543841 0.07116426 0.041882522 0.024457278 0.009895753 -0.025820475 -0.039587118 0.013883259 -0.0012345617 0.10698858 0.111189745 0.098990805 0.03607936 -0.10751907 -0.020441195 0.014015895 0.11185965 0.11022927 0.013060022 -0.037125364 -0.0348754 -0.09704071 0.055031586 -0.011232513 0.07248806 -0.040993165 -0.06880905 -0.008293491 0.029756542 -0.011979759 0.12694074 -0.047828678 -0.045088463 0.0781593 0.15441413 0.056539048 0.038073923 0.03709885 -0.0015603526 -0.043908615 0.025289696 -0.02281456 0.03514807 -0.009841043 -0.024118003 0.04453715 -0.07428902 0.08167936 0.110893376 -0.0034444064 -0.037423138 -0.040501103 -0.062443875 0.0081406925 -0.04078722 0.0034652022 -0.0008200595 -0.057600595 -0.09440607 0.024460407 -0.0690429 -0.1168281 -0.04110571 0.0033266365 0.029471194 -0.0072991443 -0.13564491 -0.08728334 0.05222597 -0.020135308 0.059246447 0.0072561316 -0.11607486 0.038568027 -0.08741508 0.05973895 0.03803483 0.09687261 0.119852915 -0.075998634 0.006107743 0.0048460024 0.00038110808 0.038582716 -0.065293476 -0.04168327 0.023061534 0.0480155 0.048791766 -0.07965029 0.06070505 0.02618594 0.08063386 -0.010408235 -0.087984286 0.020046584 0.006188735 0.022332948 0.043221146 -0.112589575 -0.05843185 0.069063134 0.002682686 -0.16321303 -0.04414087 0.10745372 0.04023527 -0.041995723 -0.015821146 0.06399789 0.08657192 0.038513854 0.05422066 -0.08820138 -0.010384729 0.013136206 0.016074743 -0.09037913 0.06379997 -0.009958559 0.115377575 -0.024850992 0.0548414 0.0132166045 0.025947668 0.019690502 -0.06154916 -0.007531833 0.020598102 -0.07316596 0.08996486 0.0031069734 -0.039271384 -0.03491892 -0.026612284 -0.026373519 0.07725225 0.012348316 -0.10451946 -0.08126638 -0.10380212 -0.0040425966 -0.05079064 -0.010122614 0.020135896 -0.030961495 0.000535634 0.10092625 -0.026646907 0.042109363 -0.10755153 -0.12828174 -0.0863523 0.00548832
h 0.032935284 0.047804724 0.09422089 0.027706252 0.042179234 -0.054118477 -0.042706583 -0.054945454 -0.0873197 -0.025483035 -0.065236405 -0.03761119 0.08420915 0.114079975 0.020946292 0.013257414 0.05648505 0.020418437 -0.081068285 0.0029446078 0.119080946 0.073982365 0.026230922 0.05844273 -0.02001435 -0.026193535 -0.031122213 -0.04244934 0.08471616 0.107992165 0.11277946 -0.045039456 0.0016606195 -0.028959986 -0.03392301 0.13040847 -0.057787552 0.06919125 -3.0332416e-05 -0.12031003 -0.05414891 0.02239245 0.09155179 0.04169766 0.018001717 0.07322559 0.028169947 0.029516095 -0.015781663 0.04495593 0.06658395 0.017567946 -0.0039437343 0.0049655274 -0.00097551214 -0.074216925 0.08113442 0.029383466 0.07359067 -0.023922471 0.007575708 -0.1052915 0.14414573 0.00965555 -0.008912023 -0.003396717 0.00054036983 -0.06300135 -0.0841993 -0.102178805 0.018398577 0.06250479 -0.019990664 0.0363197 -0.11483954 0.10295279 -0.1398401 0.047322 0.0147858085 0.0048031285 0.10174302 0.07071001 0.0023132989 -0.0056880126 0.083014 -0.09443066 -0.05169102 0.08939327 0.00688492 -0.066838466 0.027344085 -0.004803313 0.006327941 0.13016777 -0.03333262 0.123326935 0.0699369 -0.06864558 -0.007429296 0.022043474 0.07882043 -0.046703514 0.032145184 -0.12670715 0.0011280051 -0.052475158 0.053094193 0.04023989 0.07584806 -0.11802036 -0.06171179 -0.067823045 -0.117187925 -0.06331409 -0.056539398 -0.08273538 0.017262712 0.035708427 -0.05956786 -0.09469301 0.0475236 -0.03281593 0.032413684 -0.028370176 0.012603173 -0.16507408 0.016581234 0.0074008126 -0.05497778 -0.08696714 -0.041160922 0.07286675 0.107265286 -0.08260543 -0.03908729 -0.066343665 0.110827975 0.002658754 0.09789944 0.026740944 0.051622186 -0.080730766 0.03371231 -0.002348804 0.031708643 -0.027515942 -0.018924441 0.07085904 0.041730847 0.025632396 0.00659146 -0.024222065 -0.033215754 0.015591996 -0.004097152 0.11239685 0.11249638 0.10211944 0.03496776 -0.10537055 -0.022322476 0.014542643 0.11255934 0.115589336 0.010826049 -0.040261008 -0.039892465 -0.098673984 0.05282691 -0.007955165 0.071074985 -0.040008735 -0.07263912 -0.008277132 0.03777728 -0.011840738 0.13005522 -0.05256505 -0.05075468 0.079781085 0.1581323 0.06308211 0.038188726 0.03926003 0.0016949488 -0.045951813 0.024498936 -0.022220062 0.035617292 -0.012015914 -0.017517393 0.049302347 -0.07172174 0.08320392 0.1110616 -0.0074759903 -0.04227273 -0.042846937 -0.061423928 0.009538692 -0.050385784 0.0006295238 -0.0018820547 -0.054813646 -0.09191698 0.023934696 -0.07014262 -0.12024369 -0.04576431 0.0005861075 0.03712651 -0.006357433 -0.13825169 -0.08850081 0.052551188 -0.021831248 0.057080694 0.002960415 -0.121340185 0.037626546 -0.08739266 0.06303036 0.043874446 0.09325677 0.121176936 -0.07269726 0.0096620945 0.004415078 0.0010547022 0.037746776 -0.06716871 -0.044510163 0.029255968 0.048942056 0.0506964 -0.082203075 0.06246059 0.029609282 0.08640334 -0.011037866 -0.09080615 0.021693416 0.0036380787 0.024424812 0.045058727 -0.11861267 -0.06521376 0.0766818 0.0033792695 -0.16466694 -0.04687764 0.1106742 0.036632113 -0.04145087 -0.01931172 0.06593444 0.08698467 0.040179215 0.06156439 -0.0918168 -0.010062477 0.009699459 0.013624403 -0.09173751 0.058616884 -0.0098943105 0.11761202 -0.024718223 0.06035551 0.012553417 0.026085196 0.024090275 -0.0625925 -0.007573765 0.020055402 -0.07411861 0.09142925 0.009087178 -0.040500853 -0.036389574 -0.028121067 -0.02413798 0.07820683 0.0064090975 -0.102105565 -0.08874438 -0.1019355 -0.004851688 -0.053622603 -0.00943566 0.018956752 -0.029237488 0.001082722 0.098873734 -0.026685031 0.044601258 -0.11138235 -0.12826529 -0.08612641 0.004193219
y 0.031554293 0.04864036 0.09377457 0.02538427 0.041725114 -0.053046096 -0.04152575 -0.052779708 -0.08963411 -0.028499287 -0.0640239 -0.036792446 0.085118555 0.11828792 0.024311136 0.016729768 0.05575117 0.023567457 -0.08707324 -0.0010095887 0.12282354 0.07638882 0.025335923 0.05884389 -0.018277932 -0.025878401 -0.028899679 -0.040796623 0.0869783 0.108233646 0.11730091 -0.04676221 -0.0036345054 -0.031035585 -0.032334473 0.12941341 -0.059724696 0.07265816 -0.004372074 -0.12224844 -0.05351504 0.023289701 0.092661254 0.04143649 0.016982308 0.07699662 0.030294783 0.031859726 -0.01660675 0.047355983 0.06733765 0.015099132 -0.0037611595 0.0019517043 -0.0007429492 -0.074397214 0.08257961 0.029328782 0.077384934 -0.02664547 0.010272083 -0.112060234 0.1484111 0.0073166434 -0.010429407 -0.0035618264 0.0067044813 -0.060678445 -0.08411356 -0.096969336 0.018826913 0.06513824 -0.018550813 0.038128044 -0.11321443 0.10397911 -0.14263251 0.051299322 0.00955988 0.011285206 0.10074052 0.071008824 -0.001330854 -0.0065609515 0.08473069 -0.09492794 -0.0483589 0.08113203 0.0063331746 -0.06585886 0.030175015 -0.0051854234 0.007211102 0.13475437 -0.037162375 0.12260324 0.06636343 -0.067854434 -0.012403535 0.026237259 0.085207604 -0.054109775 0.03506434 -0.13207173 0.0077017993 -0.048435096 0.054642975 0.033191793 0.07592953 -0.119154885 -0.06501263 -0.07066159 -0.11437503 -0.064472586 -0.06347735 -0.08554562 0.018607529 0.039165553 -0.06082352 -0.09560667 0.048568483 -0.02803441 0.032981142 -0.031918764 0.010560259 -0.16309145 0.012312535 0.00799004 -0.052318513 -0.08655847 -0.043911655 0.07209235 0.10854389 -0.08582944 -0.03962451 -0.06970813 0.10746264 0.0012566021 0.0974319 0.021995092 0.049460553 -0.08376222 0.032176748 -0.0028162326 0.032346804 -0.02453705 -0.01775332 0.07444665 0.040342506 0.026117407 0.00078789983 -0.02909161 -0.03480908 0.016491795 -0.0015594452 0.10981359 0.1147292 0.10644042 0.040641215 -0.10420085 -0.02564233 0.016681338 0.119821355 0.11855997 0.012905679 -0.04473029 -0.037177384 -0.09891862 0.052066807 -0.009052567 0.0738299 -0.043253697 -0.07043272 -0.010410157 0.040498845 -0.01186191 0.12881011 -0.050055865 -0.0520865 0.08085825 0.16167448 0.05689402 0.037431035 0.040773753 -0.0006656346 -0.04424725 0.026479507 -0.019055193 0.04351562 -0.01927769 -0.014419931 0.0466505 -0.07161017 0.08225885 0.10787479 -0.0065518897 -0.03943463 -0.042224362 -0.06101296 0.01224091 -0.05349912 -0.0014386442 -0.005011751 -0.05233258 -0.09448881 0.025406454 -0.06981767 -0.12128297 -0.044679545 -0.00051812315 0.034791373 -0.0059035905 -0.13682036 -0.08964818 0.05638241 -0.017541371 0.057719417 0.0016334908 -0.118233554 0.03444681 -0.08654585 0.06443829 0.042126738 0.09444905 0.12055286 -0.07639168 0.0069044973 0.010773927 0.0056841834 0.03953053 -0.06725657 -0.042753514 0.03142755 0.04471663 0.048144262 -0.0856401 0.06169773 0.030466607 0.086140245 -0.011667895 -0.087589465 0.019424113 0.0067799934 0.024489366 0.04530987 -0.1186879 -0.07139716 0.07180338 0.0034370478 -0.16698213 -0.043467462 0.11184274 0.03954415 -0.04521374 -0.01769974 0.066711135 0.08264461 0.04585134 0.06348203 -0.091420196 -0.008969814 0.0071390425 0.012437877 -0.088004485 0.057286542 -0.006439871 0.111760415 -0.026636703 0.06202004 0.014839215 0.028698523 0.021996532 -0.061244883 -0.00645923 0.020204755 -0.07126323 0.08906042 0.012197542 -0.03865225 -0.03934546 -0.028735844 -0.022599692 0.07886523 0.0088003855 -0.10692021 -0.08962776 -0.09723392 -0.004504318 -0.05367083 -0.011174577 0.017590942 -0.032425918 -0.0037938838 0.09642926 -0.024837332 0.04081561 -0.10574992 -0.12409781 -0.08380789 0.0037614228
f 0.02854583 0.04394336 0.08411716 0.0248457 0.041601915 -0.05178444 -0.03790724 -0.051311973 -0.07844833 -0.024187839 -0.06578568 -0.038590286 0.08446882 0.10704064 0.023277592 0.017123576 0.056914777 0.022652583 -0.07894901 0.0057673072 0.115428984 0.078225374 0.025489325 0.05461572 -0.019723363 -0.027655736 -0.026878318 -0.04301962 0.081155896 0.10908587 0.114216805 -0.04254641 0.0019540668 -0.029326998 -0.03575274 0.124342136 -0.05606108 0.06505496 -0.003816636 -0.11550754 -0.05811476 0.026192065 0.08634847 0.03707751 0.017716404 0.07452303 0.027312588 0.02790115 -0.014373548 0.042088673 0.065359846 0.017662153 -0.0024999615 0.0028521705 -0.0005341455 -0.070751004 0.07765485 0.028958471 0.07061957 -0.022818133 0.008272449 -0.104918964 0.13882232 0.009945219 -0.0073772017 -0.0052511594 0.0015161592 -0.061598193 -0.07413107 -0.09883266 0.015875261 0.0567338 -0.017577076 0.03637785 -0.11121038 0.10063389 -0.131921 0.046598263 0.013221216 0.0036189784 0.10115967 0.0657914 0.0008516165 -0.003895189 0.081225865 -0.08469979 -0.050001826 0.08514915 0.0028330495 -0.059889045 0.0278499 -0.001405735 0.008416304 0.12677908 -0.031232795 0.1184378 0.065581 -0.06495768 -0.007950524 0.019916609 0.07791953 -0.046450827 0.028085353 -0.11870322 0.0011038334 -0.051944625 0.050918557 0.037240956 0.073191494 -0.11495751 -0.057363056 -0.066803984 -0.11099235 -0.060790516 -0.05724151 -0.076797776 0.016705994 0.033738542 -0.057364006 -0.08922109 0.044388205 -0.028917808 0.032407645 -0.025089836 0.0090391915 -0.1571191 0.0148467235 0.009872183 -0.055309124 -0.08035137 -0.041432936 0.06929811 0.09959959 -0.08476051 -0.044345688 -0.060901657 0.104548946 0.002597855 0.09417363 0.02712452 0.04691009 -0.07793328 0.033534132 -0.0016615227 0.032691095 -0.025684638 -0.015922613 0.06675836 0.03902753 0.02621458 0.0073286896 -0.027367456 -0.039163213 0.01744036 -0.002693474 0.11050283 0.10785007 0.09990748 0.03847128 -0.107370354 -0.021447662 0.011502895 0.115037285 0.10921508 0.01087042 -0.03750724 -0.038205367 -0.09555584 0.05248701 -0.010320482 0.07249653 -0.043722533 -0.06525416 -0.009446784 0.0349719 -0.009278165 0.12628019 -0.052782632 -0.046351478 0.07667222 0.15349817 0.055796735 0.03689819 0.03546931 -0.0030574477 -0.04934195 0.023087297 -0.024609732 0.035675965 -0.011851078 -0.02347145 0.0436163 -0.071577206 0.08130335 0.11051548 -0.0063522565 -0.03991336 -0.04163238 -0.05752094 0.01150353 -0.044783823 -0.0020910045 -0.003641235 -0.055466577 -0.0901949 0.019397397 -0.0681219 -0.118406154 -0.04485351 0.0026981116 0.030498095 -0.006497932 -0.13190986 -0.08770392 0.054058738 -0.019893393 0.059279814 0.007975072 -0.116167404 0.036540437 -0.082855456 0.061572317 0.04128806 0.093009606 0.12186354 -0.07472298 0.008605279 0.0059561725 0.001483051 0.035966218 -0.06655092 -0.040598903 0.02233234 0.047431137 0.049788877 -0.07856567 0.0625886 0.029347038 0.0867747 -0.009472221 -0.08594034 0.016257264 0.004974701 0.022358779 0.043927092 -0.11622784 -0.06360912 0.066899255 0.0062248027 -0.16031162 -0.04336623 0.1063703 0.037716232 -0.040358968 -0.016195606 0.062085167 0.0889152 0.042567216 0.05498734 -0.09277771 -0.011442642 0.011948543 0.013191116 -0.08950932 0.059095822 -0.009943611 0.1122773 -0.026426166 0.057734814 0.015543728 0.026239127 0.021529442 -0.0648331 -0.002366184 0.018884908 -0.06915701 0.0896817 0.0065674707 -0.03763613 -0.033239163 -0.024988443 -0.022182096 0.07791585 0.009961663 -0.101971254 -0.08081251 -0.104769036 -0.0080450205 -0.0490205 -0.010145608 0.019655254 -0.028345656 -0.0030009623 0.091976024 -0.026215054 0.040119197 -0.101861216 -0.11881885 -0.07766017 0.0067926673
b 0.031660464 0.04724444 0.08863878 0.024268864 0.0447203 -0.053740263 -0.0442511 -0.055658862 -0.08384539 -0.028180562 -0.06636125 -0.036875412 0.08823211 0.11016844 0.025788892 0.017328605 0.056823965 0.023638291 -0.08037022 0.006177405 0.120731376 0.08122383 0.025808945 0.05879395 -0.023598175 -0.024772976 -0.028305478 -0.04568574 0.08516127 0.11099995 0.11307399 -0.04443702 0.0027217087 -0.032831006 -0.0352704 0.13362665 -0.057261463 0.06641552 -0.0031235146 -0.120640956 -0.06262784 0.025997264 0.094102204 0.039281826 0.018570507 0.08072258 0.027987005 0.02850285 -0.019805418 0.045452427 0.07097501 0.015442776 -0.0055238474 0.0021923457 0.0011653925 -0.07573188 0.0817672 0.029470611 0.0745581 -0.024158696 0.011017149 -0.11004801 0.14867592 0.011066652 -0.009864856 -0.007871394 0.0007270666 -0.06351437 -0.07915451 -0.10458433 0.018151127 0.061037946 -0.021217303 0.039010648 -0.11722158 0.106289074 -0.13961427 0.047937483 0.010625544 0.0020012339 0.1072929 0.06951498 -0.00050258084 -0.0035814573 0.08466812 -0.09227006 -0.04778036 0.08906573 0.0064369137 -0.065242164 0.031027494 -0.003178664 0.008850111 0.13338627 -0.033194933 0.12656374 0.06816205 -0.06947597 -0.007122673 0.022843277 0.08109629 -0.05242096 0.0310876 -0.12672564 0.0029433055 -0.05306513 0.055555508 0.036616463 0.07647995 -0.1193205 -0.06158241 -0.07059513 -0.11278919 -0.06671916 -0.06028029 -0.08169253 0.016199537 0.0359427 -0.06221201 -0.0924942 0.0470128 -0.026602767 0.034535885 -0.026126893 0.010631032 -0.16614833 0.013432073 0.012445079 -0.05468945 -0.086510815 -0.0456113 0.07361374 0.10463894 -0.08957007 -0.044901606 -0.06466315 0.1086545 0.0058403993 0.098829895 0.026163323 0.049750973 -0.07913266 0.03404778 -0.0010937919 0.032105554 -0.023334926 -0.0183339 0.07303011 0.040940713 0.025409674 0.009188716 -0.026573889 -0.04257405 0.016146922 -0.00022070827 0.11246979 0.11399761 0.10423556 0.041007984 -0.10969042 -0.021466862 0.015207805 0.119530104 0.117137924 0.011639272 -0.038271993 -0.03760657 -0.09889841 0.056716584 -0.008112277 0.074970424 -0.042702757 -0.06903206 -0.009662478 0.032840557 -0.013501407 0.12959218 -0.05388817 -0.04737195 0.07859318 0.15958524 0.06063556 0.036871802 0.038645893 -0.002132288 -0.0493305 0.025174074 -0.025079677 0.039850686 -0.012263087 -0.024726076 0.04415413 -0.07593774 0.08371131 0.11354949 -0.005710323 -0.041452155 -0.041533254 -0.06287065 0.011341519 -0.04484946 0.0022049085 -0.00252431 -0.058188103 -0.09740003 0.026275638 -0.071390264 -0.12248505 -0.044576023 0.002422414 0.033989687 -0.0061928425 -0.14033288 -0.09257254 0.058327664 -0.021226963 0.059346583 0.0060746525 -0.123236984 0.04186333 -0.08816864 0.06438054 0.04255733 0.09734587 0.12495585 -0.07794495 0.008061068 0.005080641 0.001389928 0.040759936 -0.06515051 -0.04335298 0.022422569 0.050835308 0.051251285 -0.08332097 0.062793 0.030541947 0.08449813 -0.010010069 -0.09374159 0.017786419 0.008440045 0.024377136 0.047720004 -0.11645083 -0.06521726 0.068718195 0.0053444556 -0.16834429 -0.047346488 0.11041211 0.039696053 -0.04153186 -0.018594997 0.066258654 0.09235339 0.042160716 0.055290148 -0.09161242 -0.010331491 0.011268923 0.015685441 -0.0942953 0.06436792 -0.009691095 0.11774596 -0.025349226 0.05754751 0.016094644 0.027449775 0.01985121 -0.06562179 -0.0063730995 0.01878617 -0.07369678 0.09217148 0.005032901 -0.040904768 -0.033324968 -0.030049667 -0.025154494 0.07836453 0.012607199 -0.10816245 -0.08430517 -0.107385054 -0.0073720063 -0.05253477 -0.010012138 0.020415032 -0.02902971 -0.0026156786 0.09747133 -0.027585635 0.043239 -0.10351935 -0.129728 -0.085107915 0.004746387
v 0.024690919 0.04149885 0.07655464 0.021841703 0.04039211 -0.049278732 -0.03508425 -0.050037835 -0.07345826 -0.02404653 -0.060516782 -0.03470107 0.08281842 0.09737566 0.02518926 0.018600782 0.05448154 0.02046244 -0.07094765 0.005835477 0.10980793 0.075312205 0.025190162 0.053592402 -0.022198457 -0.023120917 -0.03030773 -0.045254104 0.08059994 0.108763814 0.10900494 -0.044582415 0.005597941 -0.029731318 -0.03213071 0.12247784 -0.055956647 0.061974503 -0.0039675133 -0.11422807 -0.060982946 0.024697207 0.08314676 0.03378879 0.02019667 0.07607896 0.027817851 0.022915918 -0.016894119 0.043025002 0.062907435 0.016388675 -0.004304868 0.004649568 0.0030054355 -0.07201333 0.07380984 0.027675316 0.0706372 -0.025473723 0.004948968 -0.099553406 0.13213696 0.010067552 -0.007938674 -0.004405309 -0.0011548565 -0.060308218 -0.072399445 -0.1013242 0.013776779 0.055776082 -0.018014405 0.03392531 -0.1084253 0.10167792 -0.12714276 0.04396963 0.010656561 -0.00071450195 0.09901772 0.06541075 0.0022318528 -0.00026807893 0.076894306 -0.082793914 -0.048331894 0.08981458 0.0007688906 -0.05585344 0.030371506 -6.391093e-05 0.005960833 0.11678309 -0.033275306 0.114757806 0.06869757 -0.063740514 -0.007875798 0.018194506 0.07145361 -0.043296695 0.024862107 -0.11266784 -0.006050037 -0.04884834 0.054688312 0.036934905 0.07174049 -0.10772967 -0.054141596 -0.06362103 -0.10420224 -0.060631495 -0.05129416 -0.07556057 0.0153602455 0.03080492 -0.057842676 -0.08599729 0.042231195 -0.027102314 0.033602417 -0.018576179 0.00995603 -0.15637428 0.0129627865 0.0125704715 -0.05340367 -0.07767582 -0.043129813 0.06865682 0.0949264 -0.08319304 -0.04843031 -0.058910046 0.10479404 0.006855588 0.09332703 0.02643926 0.042535726 -0.076063804 0.037253875 -0.001212681 0.030774098 -0.02675967 -0.018103115 0.06357408 0.037304644 0.02862649 0.014895641 -0.024766874 -0.040263083 0.016200155 -0.0041844076 0.10992217 0.108069375 0.09166318 0.036873307 -0.10524471 -0.021080378 0.0093596205 0.11034079 0.10743966 0.010255455 -0.031016871 -0.03818161 -0.09333076 0.055301074 -0.008274918 0.073782355 -0.04214833 -0.06273762 -0.004716171 0.028851716 -0.0091679925 0.12145864 -0.049912956 -0.04882354 0.076785184 0.15109567 0.057626862 0.037619796 0.037595168 -0.00073246943 -0.05089808 0.02347904 -0.0242652 0.034016065 -0.006498626 -0.02950475 0.045879222 -0.07178389 0.07839636 0.11381658 -0.0051875627 -0.044025045 -0.040387142 -0.059432004 0.010390779 -0.040984787 0.0023806293 0.0022464865 -0.05573306 -0.09527162 0.018213127 -0.06859377 -0.11980873 -0.04410837 0.001686781 0.032759108 -0.0055085244 -0.13881263 -0.087622255 0.05367264 -0.023141308 0.0624771 0.009667464 -0.11796841 0.04126887 -0.08645229 0.06505694 0.04250306 0.09979126 0.12277785 -0.07430948 0.0066779563 0.0039093215 -0.0031284294 0.03450088 -0.06515593 -0.04119705 0.01867372 0.051823173 0.052713845 -0.07845688 0.06290768 0.026412427 0.082756504 -0.009643651 -0.08957284 0.01566665 0.0046392223 0.024310859 0.044475857 -0.11399147 -0.05949994 0.06685832 0.00638702 -0.15807976 -0.045596097 0.106219806 0.040357914 -0.037981205 -0.019283691 0.061392 0.09212197 0.04207888 0.050437815 -0.091366105 -0.013966174 0.010345935 0.01753199 -0.09416093 0.061892543 -0.010312447 0.11932886 -0.022771945 0.05502993 0.018127523 0.025940664 0.020477027 -0.068600476 -0.0016304944 0.01683263 -0.07251971 0.09012388 0.0045553297 -0.037824396 -0.028721154 -0.024849124 -0.02311006 0.07818453 0.010878149 -0.102435045 -0.07812461 -0.104783654 -0.011024612 -0.04937012 -0.009637491 0.020807466 -0.025958104 0.00018400868 0.08704966 -0.023829846 0.03691766 -0.09949116 -0.11178205 -0.07300058 0.0063297995
w 0.033425543 0.04665705 0.09296997 0.026870757 0.043256283 -0.053758167 -0.045667864 -0.052822337 -0.08415046 -0.028506143 -0.06334768 -0.03762025 0.08520608 0.11528192 0.021785285 0.016312815 0.05315169 0.022549666 -0.08068427 0.0025149353 0.11967538 0.07474641 0.024145635 0.057641845 -0.022563009 -0.027014742 -0.027536215 -0.041018672 0.08534752 0.10872262 0.10994384 -0.041863453 0.00086498796 -0.031197364 -0.028896207 0.12910193 -0.05759008 0.069206096 -0.004912259 -0.11733219 -0.057748657 0.022854527 0.089185506 0.0387424 0.015741395 0.07470309 0.028242078 0.028396567 -0.014506161 0.043630507 0.069785096 0.013712271 -0.0084352475 0.0034896522 -0.0006798639 -0.07284358 0.078481965 0.025608454 0.07147213 -0.024768779 0.009865086 -0.11011896 0.14402631 0.007890895 -0.010054359 -0.006525583 0.0057275044 -0.06005354 -0.07848323 -0.09985932 0.02207756 0.06202834 -0.019837208 0.040214296 -0.11482666 0.101784855 -0.14146526 0.049031407 0.0097595425 0.0076035555 0.10167145 0.07270707 -0.0012557943 -0.0064725867 0.08553235 -0.09275776 -0.046816856 0.08625921 0.005988942 -0.0679213 0.029314548 -0.005467018 0.0056240107 0.1344746 -0.034032695 0.12327926 0.06651704 -0.07036677 -0.0124252 0.025145993 0.082345285 -0.05328652 0.033114523 -0.13104816 0.0045121172 -0.051846832 0.0560509 0.03514278 0.077123344 -0.11725237 -0.061487615 -0.068966925 -0.11299094 -0.066076376 -0.06323141 -0.085942656 0.016443172 0.039433815 -0.058601692 -0.09634863 0.05024969 -0.027916389 0.032735158 -0.029572876 0.00981704 -0.16387935 0.011812274 0.010394534 -0.054652855 -0.08849145 -0.047599506 0.07274299 0.10876604 -0.088222526 -0.03864248 -0.06722782 0.110028245 0.0011563888 0.09250861 0.023764081 0.048719894 -0.08055218 0.030650113 -0.002556642 0.03151868 -0.02218918 -0.019327207 0.07697008 0.04079675 0.024763841 0.005493638 -0.025371067 -0.036479328 0.017022144 -0.0036057155 0.109922156 0.112534136 0.10428684 0.04010972 -0.106183685 -0.022922708 0.015252952 0.116951965 0.11662487 0.014814144 -0.042909324 -0.040282015 -0.09916096 0.054385193 -0.011555652 0.07120916 -0.0407159 -0.069653004 -0.013566661 0.034575608 -0.014054004 0.12597041 -0.05064659 -0.049281687 0.0763627 0.15922445 0.057895564 0.041389566 0.03743217 0.0004388896 -0.044305768 0.026435427 -0.023471579 0.040908713 -0.016045865 -0.017891183 0.044734765 -0.073928215 0.082386725 0.110086754 -0.0058099376 -0.036534213 -0.04175428 -0.0580185 0.012009554 -0.04750752 0.0029956861 -0.0068756626 -0.055754576 -0.09492505 0.028837895 -0.066567495 -0.120928675 -0.04091712 0.0014117822 0.03307865 -0.0044899858 -0.13564327 -0.091595136 0.054439157 -0.017566724 0.055552043 0.0057646213 -0.11831517 0.037057858 -0.08638616 0.06349093 0.03990424 0.09366817 0.1183439 -0.07635825 0.0061349 0.004944864 0.00469618 0.040419538 -0.06654206 -0.04586713 0.026615968 0.044027757 0.051275726 -0.08591204 0.060647823 0.03216352 0.081734896 -0.008488958 -0.08790616 0.019967446 0.006058673 0.025546625 0.046827126 -0.114163294 -0.06636178 0.07085296 0.0026481175 -0.16222839 -0.046892215 0.10741104 0.03581958 -0.043846976 -0.016850758 0.06311259 0.083555646 0.042179395 0.061951924 -0.089256264 -0.008330895 0.008205845 0.013588423 -0.09063496 0.059822317 -0.0092091905 0.11262096 -0.026129235 0.05721129 0.014163787 0.027819054 0.02153481 -0.060288426 -0.0073094126 0.01948569 -0.07371659 0.090267785 0.00766452 -0.037592277 -0.035206795 -0.032069366 -0.02609643 0.0787398 0.0066874316 -0.10486978 -0.085357316 -0.09998174 -0.0030089654 -0.05065564 -0.010091541 0.016047824 -0.030897826 -0.0007135458 0.098042294 -0.025745416 0.040659726 -0.103541866 -0.1274018 -0.08646842 0.007082983
k 0.030421648 0.046506505 0.09286662 0.024968635 0.04185191 -0.053698435 -0.043548804 -0.052115485 -0.08564846 -0.026116978 -0.062285267 -0.03667753 0.08267369 0.10892533 0.022227108 0.011885417 0.055464238 0.020836376 -0.077915564 0.00353802 0.117263734 0.07303125 0.027165687 0.0577384 -0.022461196 -0.024980731 -0.028921042 -0.03904761 0.082426354 0.10523531 0.11138859 -0.0427892 0.00035052164 -0.03231084 -0.03311307 0.1338594 -0.05871888 0.06963418 -0.0016564347 -0.11691962 -0.058888793 0.024405949 0.091506235 0.03997605 0.017152933 0.072913125 0.030349609 0.027058762 -0.014956183 0.044467323 0.06941095 0.01325409 -0.009028209 0.00300434 0.00047452183 -0.07269017 0.077105045 0.027458463 0.07350447 -0.0205492 0.009920103 -0.10757092 0.1449362 0.0066767815 -0.0102363 -0.0040561203 0.004021283 -0.060238186 -0.0776638 -0.098182075 0.019087857 0.060773794 -0.019945936 0.037075587 -0.11349749 0.10000768 -0.1406201 0.04741382 0.013864603 0.008665522 0.09854529 0.06937955 -0.00066737656 -0.0071805594 0.08385385 -0.095733166 -0.051349904 0.089642994 0.0045139072 -0.06877581 0.027498748 -0.009168469 0.006341983 0.13242617 -0.03537511 0.12614705 0.07156314 -0.06742422 -0.009502823 0.026396247 0.0800878 -0.04923599 0.0312418 -0.12796253 0.0039822743 -0.0508384 0.05393253 0.034920394 0.07748328 -0.1160733 -0.062769756 -0.06666758 -0.11534048 -0.06461576 -0.06085621 -0.08343384 0.01865384 0.038044278 -0.058654997 -0.09770685 0.049361266 -0.031641357 0.029746981 -0.0291898 0.007759762 -0.16648175 0.016050655 0.012869636 -0.055230796 -0.089347675 -0.046412673 0.07196771 0.10556549 -0.08588883 -0.038136154 -0.065969914 0.110483795 0.0026020007 0.0970339 0.023319514 0.053280003 -0.08466836 0.03258182 -0.0011737476 0.030706026 -0.026192166 -0.022252467 0.07396801 0.041887797 0.026230419 0.0069249533 -0.026663989 -0.038911466 0.013980337 -0.001799115 0.11096966 0.11451537 0.10704205 0.036446795 -0.10827671 -0.023382965 0.01779319 0.1135846 0.115063906 0.015277796 -0.043103147 -0.040972803 -0.096855216 0.055246916 -0.009252994 0.07264048 -0.039755955 -0.0699251 -0.011755412 0.03423864 -0.012934103 0.12734836 -0.05141568 -0.049778942 0.079391085 0.16154452 0.061011717 0.040462323 0.04207089 -0.0016611482 -0.042822596 0.023085741 -0.022252716 0.03984085 -0.011526071 -0.017055877 0.047820207 -0.073615775 0.08255116 0.10955824 -0.005328702 -0.04120924 -0.04319936 -0.06090749 0.011659276 -0.047027502 0.0032043057 -0.0023223478 -0.05713562 -0.09512912 0.025171548 -0.0673437 -0.12119301 -0.043357946 0.00075208466 0.035627834 -0.0076880334 -0.13997227 -0.09102428 0.05394078 -0.020897381 0.05693336 0.0032315783 -0.120883964 0.03530571 -0.08844326 0.06495859 0.041504934 0.096930936 0.12113723 -0.07500055 0.009751824 0.003249242 0.00018925144 0.040445082 -0.065036796 -0.0458352 0.027264493 0.047123604 0.051274378 -0.083313726 0.058586635 0.030539706 0.080584794 -0.01111549 -0.0884259 0.022965234 0.008164622 0.02761488 0.04181438 -0.11454747 -0.06564389 0.07369883 0.0013153392 -0.16503276 -0.042579763 0.10892042 0.03668299 -0.041146867 -0.019818978 0.06695178 0.083050124 0.042439774 0.05986345 -0.08897456 -0.0078044264 0.01183615 0.016777145 -0.08822091 0.059088524 -0.009343038 0.11394552 -0.024955524 0.06071346 0.0145091 0.026762314 0.023833958 -0.061122417 -0.008531473 0.019604037 -0.073025435 0.09012729 0.008865098 -0.0402665 -0.034567315 -0.029068815 -0.026732212 0.078882664 0.009511313 -0.107777305 -0.08677817 -0.10025089 -0.0077805407 -0.053080745 -0.009736873 0.018309606 -0.031422615 0.0014077334 0.106513835 -0.026214674 0.043482363 -0.112747245 -0.13437012 -0.09027476 0.0042296676
x 0.028233457 0.04356514 0.085106835 0.023238866 0.037025347 -0.04973879 -0.038874153 -0.05248382 -0.07861588 -0.0250809 -0.059198238 -0.036595963 0.08310765 0.10400855 0.022212846 0.013890987 0.054442286 0.0186855 -0.07245913 0.004873835 0.10997611 0.07340859 0.026433317 0.055860788 -0.02275272 -0.025666896 -0.027778953 -0.041189298 0.081283264 0.10775329 0.107585266 -0.042172853 0.0060588154 -0.030344719 -0.033183485 0.12413948 -0.056977406 0.06137812 -0.00095455965 -0.11280506 -0.05777663 0.022364253 0.08576102 0.037627008 0.020633033 0.07422255 0.025992908 0.020833738 -0.016337711 0.04141505 0.061992016 0.016154492 -0.006939202 0.0019496172 -0.00246953 -0.0727251 0.07225909 0.02884445 0.07244579 -0.023295121 0.004505715 -0.10137547 0.13414313 0.009705148 -0.009297817 -0.00330168 -0.001716146 -0.059611846 -0.075240836 -0.10000852 0.0130604785 0.055503678 -0.016881356 0.034387227 -0.10674155 0.100072555 -0.13161649 0.044597507 0.0152708385 0.00043092223 0.09839705 0.065963596 0.00028335425 -0.002591712 0.077593744 -0.086820275 -0.047921076 0.08825011 0.0049199047 -0.061606623 0.028116195 -0.0039588134 0.007164795 0.1195931 -0.03404763 0.11758429 0.07021945 -0.06303569 -0.007630818 0.020333251 0.07194215 -0.040337294 0.026292544 -0.11508439 -0.005004109 -0.048262507 0.051421992 0.03863615 0.07056306 -0.11024645 -0.0568143 -0.06516509 -0.107857056 -0.056902546 -0.050453126 -0.07761354 0.014680981 0.03048262 -0.05816041 -0.08675692 0.04545411 -0.030275404 0.028305518 -0.022957955 0.009969717 -0.15866311 0.01697023 0.011153568 -0.053873885 -0.08047079 -0.04290302 0.070789084 0.09730575 -0.07920975 -0.043316036 -0.059519023 0.10685853 0.007267103 0.097496286 0.02755394 0.047583416 -0.0776514 0.036122873 0.0021998284 0.03151821 -0.024531528 -0.017715614 0.06408083 0.040769883 0.027049799 0.011727488 -0.02547219 -0.037950266 0.01494402 -0.0064190584 0.11183871 0.11203324 0.09699207 0.034191433 -0.10698514 -0.019858362 0.013218452 0.107009456 0.11118797 0.010667724 -0.03378678 -0.03512352 -0.092748754 0.05650499 -0.009282117 0.07211778 -0.04097445 -0.06595909 -0.0068463203 0.031361405 -0.010246526 0.12605228 -0.05050629 -0.04964638 0.078336395 0.15593739 0.060837165 0.038192317 0.04001609 0.00030666732 -0.047666766 0.024642965 -0.023125522 0.03348485 -0.006874399 -0.02493115 0.04480518 -0.071486145 0.08038923 0.11202616 -0.0016202258 -0.041322943 -0.042039946 -0.060912408 0.0121128755 -0.04034161 0.003345521 -0.00018872868 -0.055472184 -0.09401673 0.021584233 -0.07115597 -0.11915983 -0.042931 0.0024605196 0.0317639 -0.006841052 -0.13987628 -0.08716599 0.054103665 -0.021025397 0.061199386 0.0068097967 -0.11919228 0.03825132 -0.08662839 0.06217137 0.042950246 0.09898154 0.12193795 -0.0716844 0.008572229 0.0046357336 -0.0043473216 0.03438145 -0.06520282 -0.04189132 0.022128755 0.048627555 0.04996076 -0.076688364 0.06173728 0.024437448 0.08266485 -0.011582315 -0.08887986 0.01855889 0.002343064 0.02514325 0.041939057 -0.11146853 -0.059098803 0.06998396 0.0050521633 -0.15779859 -0.0420555 0.10616616 0.040127456 -0.036774497 -0.018642344 0.06238964 0.08425225 0.038160283 0.055324994 -0.09142761 -0.009961879 0.012706423 0.020000268 -0.09300408 0.06166658 -0.010147765 0.11733034 -0.022210687 0.056665562 0.01637763 0.025440874 0.019999318 -0.06496489 -0.008312799 0.020133443 -0.07109765 0.090979345 0.003502672 -0.039386943 -0.0342725 -0.02328431 -0.025688022 0.0765312 0.00961857 -0.10393612 -0.080942 -0.10232272 -0.007660193 -0.05012951 -0.011425112 0.017952189 -0.02754398 0.0040158187 0.09327244 -0.02187247 0.04156011 -0.1019525 -0.118822314 -0.080328286 0.003250606
q 0.032517552 0.047663324 0.08868487 0.023657976 0.043458723 -0.052857935 -0.040870067 -0.057393532 -0.08412069 -0.02294715 -0.067031465 -0.040929396 0.08760922 0.108568564 0.025825802 0.014012728 0.059053786 0.019007001 -0.078119695 0.007163995 0.11659419 0.07816269 0.026717452 0.05755488 -0.026076728 -0.024136042 -0.028051898 -0.046039667 0.08047517 0.11038471 0.10823943 -0.045057677 0.00454305 -0.029101752 -0.036269568 0.1282232 -0.055611573 0.05956885 0.001072042 -0.11273178 -0.05835251 0.021682937 0.085855186 0.03615122 0.022256998 0.071519926 0.024763448 0.022498773 -0.017332358 0.039619494 0.06506186 0.016701031 -0.0026732346 0.0053257677 -0.0036645492 -0.07083138 0.07686874 0.024732191 0.07019313 -0.023178319 0.005276717 -0.10279666 0.14223124 0.012099068 -0.012058177 -0.005686133 -0.0016386701 -0.06494283 -0.073692225 -0.104415536 0.017080935 0.057143137 -0.020740097 0.038737487 -0.113226704 0.10186449 -0.13169108 0.044297557 0.017476518 0.00024021734 0.100019366 0.06588421 -0.0016533051 -0.0038100097 0.07963374 -0.086648054 -0.049453646 0.0917992 0.0035631896 -0.06075932 0.02923588 -0.0010440187 0.0068346034 0.1267588 -0.03367392 0.124051146 0.06586041 -0.0674602 -0.0041800053 0.021661662 0.07823864 -0.045487184 0.030911064 -0.11899663 -0.0012696804 -0.05473067 0.05168832 0.03947786 0.07415191 -0.11633384 -0.05900155 -0.06510632 -0.11523453 -0.05805387 -0.054789923 -0.0770974 0.015373116 0.030929046 -0.060631413 -0.089210145 0.043607417 -0.028002724 0.028447041 -0.024447793 0.010415163 -0.15960899 0.017915875 0.009745107 -0.05733625 -0.0803772 -0.041229628 0.07364312 0.10152365 -0.08273674 -0.043639254 -0.06299617 0.10870114 0.009720498 0.096936725 0.026922066 0.051830675 -0.075268805 0.032672495 -0.00038165512 0.031579573 -0.026542341 -0.01662182 0.06684268 0.044210415 0.024087667 0.0127908 -0.024031226 -0.040604427 0.01352667 -0.006207582 0.11003292 0.11123584 0.10127998 0.0379408 -0.11060534 -0.019721813 0.013642877 0.11345406 0.113417 0.008517192 -0.039003216 -0.036879763 -0.095938876 0.055069882 -0.0054296046 0.07236525 -0.03923947 -0.06822525 -0.010774968 0.030559788 -0.011897983 0.12735447 -0.051384088 -0.048502 0.08101456 0.15492623 0.06064135 0.036401305 0.035973914 0.0006227468 -0.048076127 0.024407268 -0.025250036 0.03640252 -0.008404581 -0.020458674 0.044069715 -0.07324744 0.077485986 0.11375611 -0.0042874794 -0.04037772 -0.0457824 -0.062861964 0.008782762 -0.039546147 0.0014968219 -0.0032186392 -0.05385209 -0.09125858 0.022360215 -0.071008235 -0.11740326 -0.039562088 0.00050783035 0.030101795 -0.0064438093 -0.1364492 -0.08716446 0.05305511 -0.023828534 0.05751589 0.0070297318 -0.114680655 0.0393248 -0.08475441 0.060186055 0.039577056 0.09329795 0.12344219 -0.07382868 0.010678005 0.006200238 -0.0014247514 0.035296626 -0.06413977 -0.03960336 0.022788448 0.04731196 0.050075836 -0.07703985 0.06181241 0.02379079 0.08340015 -0.009309959 -0.0884005 0.015455488 0.006127607 0.023541817 0.04318555 -0.113115914 -0.061476797 0.06781388 0.0039528515 -0.15943475 -0.04550207 0.11017681 0.04005796 -0.03639943 -0.01625506 0.06496875 0.08982496 0.039662775 0.055400237 -0.087910645 -0.00933987 0.014509624 0.014268178 -0.09348246 0.062843665 -0.009681542 0.11400663 -0.02273891 0.05987181 0.0108910445 0.023284134 0.019033454 -0.060700778 -0.0069352402 0.016890196 -0.066977695 0.09328518 0.006145488 -0.040893544 -0.033372395 -0.026115706 -0.027921356 0.076051325 0.014620379 -0.10073385 -0.08316506 -0.10398381 -0.0060584834 -0.051188428 -0.010267278 0.016031828 -0.024998121 -8.789913e-05 0.09723334 -0.02580125 0.044237196 -0.10496926 -0.12629463 -0.08536948 0.004212456
z 0.03621166 0.05400764 0.09697815 0.029002769 0.04610343 -0.061293475 -0.04830284 -0.057577904 -0.0933013 -0.028262952 -0.07145808 -0.04411914 0.09238979 0.120998286 0.02548744 0.012060491 0.06227378 0.025316326 -0.08735758 0.0047819 0.12535459 0.08360151 0.028107056 0.06329382 -0.025750214 -0.024903025 -0.03461165 -0.04472368 0.09002138 0.11952782 0.12075959 -0.04825509 0.0020173981 -0.0322943 -0.036774673 0.14084163 -0.060516655 0.07127044 0.00019581272 -0.12652907 -0.061409123 0.023879215 0.09656267 0.04496185 0.02243387 0.07933006 0.029092202 0.029377287 -0.01914867 0.046285424 0.07324969 0.016011268 -0.0063880184 0.0060310303 -0.0014172392 -0.08153012 0.08758836 0.030981386 0.08048335 -0.02544985 0.0109121725 -0.11520184 0.15713513 0.008698598 -0.010649176 -0.0033668266 0.001106043 -0.06804774 -0.08673123 -0.111515656 0.022454992 0.065754436 -0.01943753 0.03986685 -0.11986263 0.1119033 -0.14934924 0.052415855 0.013633816 0.0074404757 0.10825378 0.07743051 -0.0019284944 -0.00711779 0.08589646 -0.101739846 -0.05280248 0.09399347 0.006253835 -0.07163476 0.03265095 -0.007260456 0.007752635 0.14062753 -0.036673404 0.1355249 0.07319573 -0.07520399 -0.007729274 0.024479626 0.08568854 -0.054167103 0.034938276 -0.13942423 0.003938866 -0.056246098 0.05951943 0.04141067 0.08006508 -0.1280023 -0.06635985 -0.07241869 -0.1259227 -0.068656415 -0.060608134 -0.08998003 0.01751261 0.03671341 -0.064956404 -0.10442623 0.04907153 -0.03197706 0.031361416 -0.028747937 0.011878255 -0.18044047 0.01556982 0.01487487 -0.06027977 -0.09440373 -0.04597863 0.08074709 0.11844251 -0.092755936 -0.04302906 -0.071870975 0.11958238 0.0058308085 0.10553748 0.029648792 0.05810152 -0.08752467 0.035745606 0.00016164615 0.03787608 -0.025472421 -0.018868575 0.07718545 0.0449997 0.025398945 0.0063268584 -0.027410276 -0.04275852 0.0171084 -0.0042042737 0.12176242 0.124329194 0.112997755 0.039504603 -0.11815275 -0.024964781 0.018574497 0.12705092 0.12814312 0.013064462 -0.043900985 -0.041995242 -0.10631119 0.058335107 -0.008200687 0.078532755 -0.044010717 -0.07563911 -0.009749466 0.0385115 -0.012330351 0.14122932 -0.05484708 -0.053370453 0.08731197 0.1729256 0.0664279 0.04251997 0.045641124 -0.00052704633 -0.046682257 0.026888432 -0.023384105 0.041402593 -0.011288171 -0.018090338 0.047870796 -0.076644376 0.089175664 0.12036868 -0.008353967 -0.041233275 -0.045920927 -0.06687665 0.013093329 -0.048977982 0.0014153721 -0.0025138268 -0.05990917 -0.10188182 0.027225683 -0.07735497 -0.13140899 -0.04557411 -0.00086966105 0.037225522 -0.004582539 -0.14980033 -0.09419506 0.06048984 -0.024315067 0.0627003 0.004523862 -0.12722874 0.04119535 -0.09296782 0.067280486 0.047513146 0.10124487 0.13260284 -0.08237044 0.008827451 0.005208801 0.0008897799 0.042391002 -0.07459719 -0.04756705 0.029073915 0.0526668 0.05531282 -0.087593846 0.0668035 0.030796062 0.09035448 -0.010038486 -0.09884737 0.019668667 0.010077477 0.029416192 0.046508785 -0.12451851 -0.06904936 0.08092287 0.004466753 -0.17987688 -0.049575046 0.119830154 0.043921534 -0.04277786 -0.020234022 0.073413 0.09584785 0.043422464 0.065235056 -0.097283475 -0.010685574 0.0136070335 0.019209241 -0.0995603 0.06848464 -0.0074444464 0.12354791 -0.028190354 0.06483647 0.014968652 0.03136784 0.023212558 -0.06587855 -0.01027473 0.018121375 -0.079211175 0.0983951 0.010134308 -0.04275241 -0.040964972 -0.029570894 -0.026522784 0.0842553 0.012158469 -0.11201792 -0.09490689 -0.11021561 -0.005969189 -0.057653096 -0.011925455 0.017691651 -0.030891048 -0.00074289157 0.111645184 -0.025693838 0.049049668 -0.11948431 -0.14317915 -0.09890654 0.0038461825
j 0.033095494 0.048084743 0.09112667 0.026675189 0.043635607 -0.054424543 -0.04140164 -0.05553955 -0.08425987 -0.026893131 -0.06336424 -0.039094705 0.08318865 0.10976016 0.022766724 0.013678872 0.0538946 0.022166217 -0.07921568 0.0021857994 0.11786464 0.07516908 0.027053542 0.05932342 -0.024226652 -0.024264168 -0.03052611 -0.043512236 0.081217974 0.10824957 0.112019815 -0.04538268 0.0024868213 -0.03162473 -0.03172416 0.128319 -0.056360696 0.06496592 0.0010812668 -0.11699731 -0.056282 0.02292014 0.08793958 0.038169745 0.01915008 0.071619675 0.0288927 0.024734307 -0.014604511 0.0413023 0.067237906 0.016144741 -0.004672578 0.004324167 -0.0027010087 -0.07162491 0.07620574 0.025536057 0.07023257 -0.02077649 0.0075221905 -0.10275198 0.14188392 0.009907291 -0.012164441 -0.0067006047 0.0021872332 -0.06225579 -0.078762375 -0.104038686 0.016566478 0.060862366 -0.01911026 0.038984355 -0.1122494 0.1010635 -0.13757795 0.044661667 0.015299397 0.0034197085 0.10104559 0.06839493 0.0015361849 -0.005458281 0.08154385 -0.09276156 -0.0513606 0.08863431 0.005083526 -0.06524477 0.026460629 -0.0048755235 0.007525082 0.12887175 -0.032897152 0.12561655 0.06766184 -0.06903475 -0.0073281475 0.022221314 0.07921327 -0.046485413 0.0312078 -0.12483703 -0.002047435 -0.053971857 0.054303106 0.03958455 0.073974 -0.1145988 -0.06214198 -0.06674022 -0.11626674 -0.059435055 -0.05583508 -0.08292932 0.016675698 0.03608776 -0.058802743 -0.09242181 0.046873335 -0.032426137 0.030011902 -0.025249232 0.01098802 -0.16531216 0.018025184 0.009702919 -0.054783355 -0.08415587 -0.044812407 0.07428113 0.105206855 -0.082255974 -0.039105408 -0.063685484 0.10752322 0.0067887283 0.095458835 0.0240286 0.051225692 -0.0815632 0.032652963 -0.0006841043 0.031562883 -0.025913464 -0.01764962 0.07050853 0.04196764 0.023282867 0.009328567 -0.02650364 -0.03753206 0.013941717 -0.0051817936 0.11158352 0.11325593 0.10213666 0.035630874 -0.10739728 -0.02269804 0.014125843 0.1118483 0.112767525 0.0093313325 -0.03985206 -0.03741712 -0.09527122 0.05471663 -0.006325981 0.07329666 -0.041086886 -0.07206078 -0.01071301 0.03370449 -0.013046837 0.12936449 -0.05117938 -0.049812347 0.0811155 0.15719171 0.06179684 0.036704175 0.039631613 0.0022326238 -0.046802886 0.024016917 -0.022602018 0.037834674 -0.010124174 -0.017173357 0.046588667 -0.07405165 0.08096938 0.113580786 -0.005988831 -0.04013705 -0.04497617 -0.06188022 0.010765892 -0.04486786 0.0021887268 -0.0041512707 -0.05502423 -0.09281088 0.02319882 -0.06892737 -0.120051846 -0.04142381 -0.0017944267 0.033192806 -0.0063795187 -0.1367914 -0.09125171 0.053672086 -0.022161348 0.057275355 0.0039196503 -0.11977245 0.037526093 -0.08716949 0.061274532 0.043065775 0.095814146 0.12143271 -0.07429603 0.010541633 0.004715229 0.00043822988 0.037033927 -0.06563039 -0.043023944 0.025099581 0.049108904 0.051025983 -0.07835036 0.06068626 0.026658094 0.08567531 -0.008436584 -0.08770856 0.018522538 0.007485891 0.02707561 0.04369299 -0.11502749 -0.06352811 0.07376557 0.004522497 -0.1619756 -0.04653136 0.1114078 0.03673706 -0.04127942 -0.018302621 0.066003665 0.08715414 0.039670207 0.05787874 -0.08931144 -0.008659475 0.011505919 0.0148915425 -0.09202924 0.060348753 -0.008910501 0.114310235 -0.025809415 0.059285175 0.01388756 0.027010305 0.020203223 -0.063812025 -0.008272046 0.018708661 -0.0702797 0.09281337 0.0077348803 -0.04303174 -0.036474954 -0.028722327 -0.025491567 0.078457765 0.010532748 -0.10346851 -0.08748087 -0.10165642 -0.004886689 -0.052522033 -0.010760531 0.01725536 -0.02715938 0.002587991 0.101079725 -0.023825763 0.044684704 -0.10987268 -0.12649153 -0.08690921 0.003219608
